digraph Tree {
node [shape=box, style="filled, rounded", color="black", fontname=helvetica] ;
edge [fontname=helvetica] ;
0 [label=<distant_to_goal &le; 19.398<br/>gini = 0.5<br/>samples = 41820<br/>value = [20910, 20910]<br/>class = 0>, fillcolor="#ffffff"] ;
1 [label=<duration &le; 0.277<br/>gini = 0.469<br/>samples = 28021<br/>value = [10528, 17493]<br/>class = 1>, fillcolor="#b0d8f5"] ;
0 -> 1 [labeldistance=2.5, labelangle=45, headlabel="True"] ;
2 [label=<distant_to_goal &le; 6.996<br/>gini = 0.401<br/>samples = 3264<br/>value = [2359, 905]<br/>class = 0>, fillcolor="#efb185"] ;
1 -> 2 ;
3 [label=<players_between_goal &le; 0.5<br/>gini = 0.391<br/>samples = 714<br/>value = [190, 524]<br/>class = 1>, fillcolor="#81c1ee"] ;
2 -> 3 ;
4 [label=<duration &le; 0.1<br/>gini = 0.057<br/>samples = 203<br/>value = [6, 197]<br/>class = 1>, fillcolor="#3fa0e6"] ;
3 -> 4 ;
5 [label=<duration &le; 0.035<br/>gini = 0.363<br/>samples = 21<br/>value = [5, 16]<br/>class = 1>, fillcolor="#77bced"] ;
4 -> 5 ;
6 [label=<angle_to_goal &le; 0.353<br/>gini = 0.111<br/>samples = 17<br/>value = [1, 16]<br/>class = 1>, fillcolor="#45a3e7"] ;
5 -> 6 ;
7 [label=<gini = 0.0<br/>samples = 1<br/>value = [1, 0]<br/>class = 0>, fillcolor="#e58139"] ;
6 -> 7 ;
8 [label=<gini = 0.0<br/>samples = 16<br/>value = [0, 16]<br/>class = 1>, fillcolor="#399de5"] ;
6 -> 8 ;
9 [label=<gini = 0.0<br/>samples = 4<br/>value = [4, 0]<br/>class = 0>, fillcolor="#e58139"] ;
5 -> 9 ;
10 [label=<distant_to_goal &le; 5.551<br/>gini = 0.011<br/>samples = 182<br/>value = [1, 181]<br/>class = 1>, fillcolor="#3a9ee5"] ;
4 -> 10 ;
11 [label=<gini = 0.0<br/>samples = 154<br/>value = [0, 154]<br/>class = 1>, fillcolor="#399de5"] ;
10 -> 11 ;
12 [label=<distant_to_goal &le; 5.878<br/>gini = 0.069<br/>samples = 28<br/>value = [1, 27]<br/>class = 1>, fillcolor="#40a1e6"] ;
10 -> 12 ;
13 [label=<gini = 0.0<br/>samples = 1<br/>value = [1, 0]<br/>class = 0>, fillcolor="#e58139"] ;
12 -> 13 ;
14 [label=<gini = 0.0<br/>samples = 27<br/>value = [0, 27]<br/>class = 1>, fillcolor="#399de5"] ;
12 -> 14 ;
15 [label=<duration &le; 0.131<br/>gini = 0.461<br/>samples = 511<br/>value = [184, 327]<br/>class = 1>, fillcolor="#a8d4f4"] ;
3 -> 15 ;
16 [label=<angle_to_goal &le; 0.96<br/>gini = 0.492<br/>samples = 135<br/>value = [76, 59]<br/>class = 0>, fillcolor="#f9e3d3"] ;
15 -> 16 ;
17 [label=<within_5 &le; 1.5<br/>gini = 0.385<br/>samples = 77<br/>value = [57, 20]<br/>class = 0>, fillcolor="#eead7e"] ;
16 -> 17 ;
18 [label=<angle_to_goal &le; 0.172<br/>gini = 0.305<br/>samples = 16<br/>value = [3, 13]<br/>class = 1>, fillcolor="#67b4eb"] ;
17 -> 18 ;
19 [label=<gini = 0.0<br/>samples = 13<br/>value = [0, 13]<br/>class = 1>, fillcolor="#399de5"] ;
18 -> 19 ;
20 [label=<gini = 0.0<br/>samples = 3<br/>value = [3, 0]<br/>class = 0>, fillcolor="#e58139"] ;
18 -> 20 ;
21 [label=<distant_to_goal &le; 6.982<br/>gini = 0.203<br/>samples = 61<br/>value = [54, 7]<br/>class = 0>, fillcolor="#e89153"] ;
17 -> 21 ;
22 [label=<gini = 0.0<br/>samples = 54<br/>value = [54, 0]<br/>class = 0>, fillcolor="#e58139"] ;
21 -> 22 ;
23 [label=<gini = 0.0<br/>samples = 7<br/>value = [0, 7]<br/>class = 1>, fillcolor="#399de5"] ;
21 -> 23 ;
24 [label=<players_between_goal &le; 2.5<br/>gini = 0.441<br/>samples = 58<br/>value = [19, 39]<br/>class = 1>, fillcolor="#99cdf2"] ;
16 -> 24 ;
25 [label=<angle_to_goal &le; 1.392<br/>gini = 0.325<br/>samples = 49<br/>value = [10, 39]<br/>class = 1>, fillcolor="#6cb6ec"] ;
24 -> 25 ;
26 [label=<duration &le; 0.123<br/>gini = 0.258<br/>samples = 46<br/>value = [7, 39]<br/>class = 1>, fillcolor="#5dafea"] ;
25 -> 26 ;
27 [label=<duration &le; 0.046<br/>gini = 0.201<br/>samples = 44<br/>value = [5, 39]<br/>class = 1>, fillcolor="#52aae8"] ;
26 -> 27 ;
28 [label=<gini = 0.0<br/>samples = 1<br/>value = [1, 0]<br/>class = 0>, fillcolor="#e58139"] ;
27 -> 28 ;
29 [label=<within_10 &le; 7.5<br/>gini = 0.169<br/>samples = 43<br/>value = [4, 39]<br/>class = 1>, fillcolor="#4da7e8"] ;
27 -> 29 ;
30 [label=<duration &le; 0.065<br/>gini = 0.42<br/>samples = 10<br/>value = [3, 7]<br/>class = 1>, fillcolor="#8ec7f0"] ;
29 -> 30 ;
31 [label=<gini = 0.0<br/>samples = 7<br/>value = [0, 7]<br/>class = 1>, fillcolor="#399de5"] ;
30 -> 31 ;
32 [label=<gini = 0.0<br/>samples = 3<br/>value = [3, 0]<br/>class = 0>, fillcolor="#e58139"] ;
30 -> 32 ;
33 [label=<duration &le; 0.076<br/>gini = 0.059<br/>samples = 33<br/>value = [1, 32]<br/>class = 1>, fillcolor="#3fa0e6"] ;
29 -> 33 ;
34 [label=<gini = 0.0<br/>samples = 1<br/>value = [1, 0]<br/>class = 0>, fillcolor="#e58139"] ;
33 -> 34 ;
35 [label=<gini = 0.0<br/>samples = 32<br/>value = [0, 32]<br/>class = 1>, fillcolor="#399de5"] ;
33 -> 35 ;
36 [label=<gini = 0.0<br/>samples = 2<br/>value = [2, 0]<br/>class = 0>, fillcolor="#e58139"] ;
26 -> 36 ;
37 [label=<gini = 0.0<br/>samples = 3<br/>value = [3, 0]<br/>class = 0>, fillcolor="#e58139"] ;
25 -> 37 ;
38 [label=<gini = 0.0<br/>samples = 9<br/>value = [9, 0]<br/>class = 0>, fillcolor="#e58139"] ;
24 -> 38 ;
39 [label=<distant_to_goal &le; 4.92<br/>gini = 0.409<br/>samples = 376<br/>value = [108, 268]<br/>class = 1>, fillcolor="#89c4ef"] ;
15 -> 39 ;
40 [label=<duration &le; 0.213<br/>gini = 0.265<br/>samples = 140<br/>value = [22, 118]<br/>class = 1>, fillcolor="#5eafea"] ;
39 -> 40 ;
41 [label=<within_5 &le; 1.5<br/>gini = 0.142<br/>samples = 117<br/>value = [9, 108]<br/>class = 1>, fillcolor="#49a5e7"] ;
40 -> 41 ;
42 [label=<gini = 0.0<br/>samples = 2<br/>value = [2, 0]<br/>class = 0>, fillcolor="#e58139"] ;
41 -> 42 ;
43 [label=<players_between_goal &le; 4.5<br/>gini = 0.114<br/>samples = 115<br/>value = [7, 108]<br/>class = 1>, fillcolor="#46a3e7"] ;
41 -> 43 ;
44 [label=<within_5 &le; 2.5<br/>gini = 0.1<br/>samples = 114<br/>value = [6, 108]<br/>class = 1>, fillcolor="#44a2e6"] ;
43 -> 44 ;
45 [label=<gini = 0.0<br/>samples = 49<br/>value = [0, 49]<br/>class = 1>, fillcolor="#399de5"] ;
44 -> 45 ;
46 [label=<play_pattern &le; 1.5<br/>gini = 0.168<br/>samples = 65<br/>value = [6, 59]<br/>class = 1>, fillcolor="#4da7e8"] ;
44 -> 46 ;
47 [label=<duration &le; 0.193<br/>gini = 0.092<br/>samples = 62<br/>value = [3, 59]<br/>class = 1>, fillcolor="#43a2e6"] ;
46 -> 47 ;
48 [label=<duration &le; 0.152<br/>gini = 0.033<br/>samples = 60<br/>value = [1, 59]<br/>class = 1>, fillcolor="#3c9fe5"] ;
47 -> 48 ;
49 [label=<within_10 &le; 12.5<br/>gini = 0.165<br/>samples = 11<br/>value = [1, 10]<br/>class = 1>, fillcolor="#4da7e8"] ;
48 -> 49 ;
50 [label=<gini = 0.0<br/>samples = 10<br/>value = [0, 10]<br/>class = 1>, fillcolor="#399de5"] ;
49 -> 50 ;
51 [label=<gini = 0.0<br/>samples = 1<br/>value = [1, 0]<br/>class = 0>, fillcolor="#e58139"] ;
49 -> 51 ;
52 [label=<gini = 0.0<br/>samples = 49<br/>value = [0, 49]<br/>class = 1>, fillcolor="#399de5"] ;
48 -> 52 ;
53 [label=<gini = 0.0<br/>samples = 2<br/>value = [2, 0]<br/>class = 0>, fillcolor="#e58139"] ;
47 -> 53 ;
54 [label=<gini = 0.0<br/>samples = 3<br/>value = [3, 0]<br/>class = 0>, fillcolor="#e58139"] ;
46 -> 54 ;
55 [label=<gini = 0.0<br/>samples = 1<br/>value = [1, 0]<br/>class = 0>, fillcolor="#e58139"] ;
43 -> 55 ;
56 [label=<distant_to_goal &le; 4.357<br/>gini = 0.491<br/>samples = 23<br/>value = [13, 10]<br/>class = 0>, fillcolor="#f9e2d1"] ;
40 -> 56 ;
57 [label=<gini = 0.0<br/>samples = 12<br/>value = [12, 0]<br/>class = 0>, fillcolor="#e58139"] ;
56 -> 57 ;
58 [label=<angle_to_goal &le; 0.381<br/>gini = 0.165<br/>samples = 11<br/>value = [1, 10]<br/>class = 1>, fillcolor="#4da7e8"] ;
56 -> 58 ;
59 [label=<gini = 0.0<br/>samples = 1<br/>value = [1, 0]<br/>class = 0>, fillcolor="#e58139"] ;
58 -> 59 ;
60 [label=<gini = 0.0<br/>samples = 10<br/>value = [0, 10]<br/>class = 1>, fillcolor="#399de5"] ;
58 -> 60 ;
61 [label=<duration &le; 0.216<br/>gini = 0.463<br/>samples = 236<br/>value = [86, 150]<br/>class = 1>, fillcolor="#abd5f4"] ;
39 -> 61 ;
62 [label=<within_1 &le; 0.5<br/>gini = 0.482<br/>samples = 94<br/>value = [56, 38]<br/>class = 0>, fillcolor="#f7d7bf"] ;
61 -> 62 ;
63 [label=<within_10 &le; 6.5<br/>gini = 0.424<br/>samples = 72<br/>value = [50, 22]<br/>class = 0>, fillcolor="#f0b890"] ;
62 -> 63 ;
64 [label=<duration &le; 0.17<br/>gini = 0.5<br/>samples = 45<br/>value = [23, 22]<br/>class = 0>, fillcolor="#fefaf6"] ;
63 -> 64 ;
65 [label=<gini = 0.0<br/>samples = 9<br/>value = [9, 0]<br/>class = 0>, fillcolor="#e58139"] ;
64 -> 65 ;
66 [label=<within_5 &le; 2.5<br/>gini = 0.475<br/>samples = 36<br/>value = [14, 22]<br/>class = 1>, fillcolor="#b7dbf6"] ;
64 -> 66 ;
67 [label=<gini = 0.0<br/>samples = 6<br/>value = [6, 0]<br/>class = 0>, fillcolor="#e58139"] ;
66 -> 67 ;
68 [label=<players_between_goal &le; 1.5<br/>gini = 0.391<br/>samples = 30<br/>value = [8, 22]<br/>class = 1>, fillcolor="#81c1ee"] ;
66 -> 68 ;
69 [label=<within_10 &le; 3.5<br/>gini = 0.26<br/>samples = 26<br/>value = [4, 22]<br/>class = 1>, fillcolor="#5dafea"] ;
68 -> 69 ;
70 [label=<gini = 0.0<br/>samples = 1<br/>value = [1, 0]<br/>class = 0>, fillcolor="#e58139"] ;
69 -> 70 ;
71 [label=<duration &le; 0.208<br/>gini = 0.211<br/>samples = 25<br/>value = [3, 22]<br/>class = 1>, fillcolor="#54aae9"] ;
69 -> 71 ;
72 [label=<distant_to_goal &le; 6.186<br/>gini = 0.153<br/>samples = 24<br/>value = [2, 22]<br/>class = 1>, fillcolor="#4ba6e7"] ;
71 -> 72 ;
73 [label=<gini = 0.0<br/>samples = 18<br/>value = [0, 18]<br/>class = 1>, fillcolor="#399de5"] ;
72 -> 73 ;
74 [label=<gini = 0.444<br/>samples = 6<br/>value = [2, 4]<br/>class = 1>, fillcolor="#9ccef2"] ;
72 -> 74 ;
75 [label=<gini = 0.0<br/>samples = 1<br/>value = [1, 0]<br/>class = 0>, fillcolor="#e58139"] ;
71 -> 75 ;
76 [label=<gini = 0.0<br/>samples = 4<br/>value = [4, 0]<br/>class = 0>, fillcolor="#e58139"] ;
68 -> 76 ;
77 [label=<gini = 0.0<br/>samples = 27<br/>value = [27, 0]<br/>class = 0>, fillcolor="#e58139"] ;
63 -> 77 ;
78 [label=<distant_to_goal &le; 6.45<br/>gini = 0.397<br/>samples = 22<br/>value = [6, 16]<br/>class = 1>, fillcolor="#83c2ef"] ;
62 -> 78 ;
79 [label=<gini = 0.0<br/>samples = 6<br/>value = [6, 0]<br/>class = 0>, fillcolor="#e58139"] ;
78 -> 79 ;
80 [label=<gini = 0.0<br/>samples = 16<br/>value = [0, 16]<br/>class = 1>, fillcolor="#399de5"] ;
78 -> 80 ;
81 [label=<distant_to_goal &le; 6.77<br/>gini = 0.333<br/>samples = 142<br/>value = [30, 112]<br/>class = 1>, fillcolor="#6eb7ec"] ;
61 -> 81 ;
82 [label=<distant_to_goal &le; 5.248<br/>gini = 0.281<br/>samples = 130<br/>value = [22, 108]<br/>class = 1>, fillcolor="#61b1ea"] ;
81 -> 82 ;
83 [label=<gini = 0.0<br/>samples = 4<br/>value = [4, 0]<br/>class = 0>, fillcolor="#e58139"] ;
82 -> 83 ;
84 [label=<within_10 &le; 3.5<br/>gini = 0.245<br/>samples = 126<br/>value = [18, 108]<br/>class = 1>, fillcolor="#5aade9"] ;
82 -> 84 ;
85 [label=<duration &le; 0.252<br/>gini = 0.444<br/>samples = 6<br/>value = [4, 2]<br/>class = 0>, fillcolor="#f2c09c"] ;
84 -> 85 ;
86 [label=<gini = 0.0<br/>samples = 4<br/>value = [4, 0]<br/>class = 0>, fillcolor="#e58139"] ;
85 -> 86 ;
87 [label=<gini = 0.0<br/>samples = 2<br/>value = [0, 2]<br/>class = 1>, fillcolor="#399de5"] ;
85 -> 87 ;
88 [label=<players_between_goal &le; 3.5<br/>gini = 0.206<br/>samples = 120<br/>value = [14, 106]<br/>class = 1>, fillcolor="#53aae8"] ;
84 -> 88 ;
89 [label=<within_10 &le; 7.5<br/>gini = 0.183<br/>samples = 118<br/>value = [12, 106]<br/>class = 1>, fillcolor="#4fa8e8"] ;
88 -> 89 ;
90 [label=<angle_to_goal &le; 1.206<br/>gini = 0.084<br/>samples = 68<br/>value = [3, 65]<br/>class = 1>, fillcolor="#42a2e6"] ;
89 -> 90 ;
91 [label=<within_1 &le; 0.5<br/>gini = 0.058<br/>samples = 67<br/>value = [2, 65]<br/>class = 1>, fillcolor="#3fa0e6"] ;
90 -> 91 ;
92 [label=<distant_to_goal &le; 6.166<br/>gini = 0.03<br/>samples = 66<br/>value = [1, 65]<br/>class = 1>, fillcolor="#3c9fe5"] ;
91 -> 92 ;
93 [label=<gini = 0.087<br/>samples = 22<br/>value = [1, 21]<br/>class = 1>, fillcolor="#42a2e6"] ;
92 -> 93 ;
94 [label=<gini = 0.0<br/>samples = 44<br/>value = [0, 44]<br/>class = 1>, fillcolor="#399de5"] ;
92 -> 94 ;
95 [label=<gini = 0.0<br/>samples = 1<br/>value = [1, 0]<br/>class = 0>, fillcolor="#e58139"] ;
91 -> 95 ;
96 [label=<gini = 0.0<br/>samples = 1<br/>value = [1, 0]<br/>class = 0>, fillcolor="#e58139"] ;
90 -> 96 ;
97 [label=<distant_to_goal &le; 5.606<br/>gini = 0.295<br/>samples = 50<br/>value = [9, 41]<br/>class = 1>, fillcolor="#64b3eb"] ;
89 -> 97 ;
98 [label=<gini = 0.0<br/>samples = 33<br/>value = [0, 33]<br/>class = 1>, fillcolor="#399de5"] ;
97 -> 98 ;
99 [label=<duration &le; 0.224<br/>gini = 0.498<br/>samples = 17<br/>value = [9, 8]<br/>class = 0>, fillcolor="#fcf1e9"] ;
97 -> 99 ;
100 [label=<gini = 0.0<br/>samples = 8<br/>value = [0, 8]<br/>class = 1>, fillcolor="#399de5"] ;
99 -> 100 ;
101 [label=<gini = 0.0<br/>samples = 9<br/>value = [9, 0]<br/>class = 0>, fillcolor="#e58139"] ;
99 -> 101 ;
102 [label=<gini = 0.0<br/>samples = 2<br/>value = [2, 0]<br/>class = 0>, fillcolor="#e58139"] ;
88 -> 102 ;
103 [label=<duration &le; 0.255<br/>gini = 0.444<br/>samples = 12<br/>value = [8, 4]<br/>class = 0>, fillcolor="#f2c09c"] ;
81 -> 103 ;
104 [label=<gini = 0.0<br/>samples = 6<br/>value = [6, 0]<br/>class = 0>, fillcolor="#e58139"] ;
103 -> 104 ;
105 [label=<within_10 &le; 5.5<br/>gini = 0.444<br/>samples = 6<br/>value = [2, 4]<br/>class = 1>, fillcolor="#9ccef2"] ;
103 -> 105 ;
106 [label=<gini = 0.0<br/>samples = 4<br/>value = [0, 4]<br/>class = 1>, fillcolor="#399de5"] ;
105 -> 106 ;
107 [label=<gini = 0.0<br/>samples = 2<br/>value = [2, 0]<br/>class = 0>, fillcolor="#e58139"] ;
105 -> 107 ;
108 [label=<distant_to_goal &le; 8.85<br/>gini = 0.254<br/>samples = 2550<br/>value = [2169, 381]<br/>class = 0>, fillcolor="#ea975c"] ;
2 -> 108 ;
109 [label=<within_1 &le; 0.5<br/>gini = 0.411<br/>samples = 304<br/>value = [216, 88]<br/>class = 0>, fillcolor="#f0b48a"] ;
108 -> 109 ;
110 [label=<duration &le; 0.081<br/>gini = 0.458<br/>samples = 248<br/>value = [160, 88]<br/>class = 0>, fillcolor="#f3c6a6"] ;
109 -> 110 ;
111 [label=<gini = 0.0<br/>samples = 33<br/>value = [33, 0]<br/>class = 0>, fillcolor="#e58139"] ;
110 -> 111 ;
112 [label=<duration &le; 0.081<br/>gini = 0.484<br/>samples = 215<br/>value = [127, 88]<br/>class = 0>, fillcolor="#f7d8c2"] ;
110 -> 112 ;
113 [label=<gini = 0.0<br/>samples = 9<br/>value = [0, 9]<br/>class = 1>, fillcolor="#399de5"] ;
112 -> 113 ;
114 [label=<within_5 &le; 4.5<br/>gini = 0.473<br/>samples = 206<br/>value = [127, 79]<br/>class = 0>, fillcolor="#f5cfb4"] ;
112 -> 114 ;
115 [label=<players_between_goal &le; 2.5<br/>gini = 0.493<br/>samples = 179<br/>value = [100, 79]<br/>class = 0>, fillcolor="#fae5d5"] ;
114 -> 115 ;
116 [label=<duration &le; 0.237<br/>gini = 0.474<br/>samples = 150<br/>value = [92, 58]<br/>class = 0>, fillcolor="#f5d0b6"] ;
115 -> 116 ;
117 [label=<distant_to_goal &le; 8.829<br/>gini = 0.401<br/>samples = 108<br/>value = [78, 30]<br/>class = 0>, fillcolor="#efb185"] ;
116 -> 117 ;
118 [label=<angle_to_goal &le; 0.426<br/>gini = 0.337<br/>samples = 98<br/>value = [77, 21]<br/>class = 0>, fillcolor="#eca36f"] ;
117 -> 118 ;
119 [label=<play_pattern &le; 7.0<br/>gini = 0.492<br/>samples = 48<br/>value = [27, 21]<br/>class = 0>, fillcolor="#f9e3d3"] ;
118 -> 119 ;
120 [label=<gini = 0.0<br/>samples = 20<br/>value = [20, 0]<br/>class = 0>, fillcolor="#e58139"] ;
119 -> 120 ;
121 [label=<players_between_goal &le; 1.5<br/>gini = 0.375<br/>samples = 28<br/>value = [7, 21]<br/>class = 1>, fillcolor="#7bbeee"] ;
119 -> 121 ;
122 [label=<duration &le; 0.109<br/>gini = 0.219<br/>samples = 24<br/>value = [3, 21]<br/>class = 1>, fillcolor="#55abe9"] ;
121 -> 122 ;
123 [label=<gini = 0.0<br/>samples = 1<br/>value = [1, 0]<br/>class = 0>, fillcolor="#e58139"] ;
122 -> 123 ;
124 [label=<gini = 0.159<br/>samples = 23<br/>value = [2, 21]<br/>class = 1>, fillcolor="#4ca6e7"] ;
122 -> 124 ;
125 [label=<gini = 0.0<br/>samples = 4<br/>value = [4, 0]<br/>class = 0>, fillcolor="#e58139"] ;
121 -> 125 ;
126 [label=<gini = 0.0<br/>samples = 50<br/>value = [50, 0]<br/>class = 0>, fillcolor="#e58139"] ;
118 -> 126 ;
127 [label=<within_10 &le; 4.0<br/>gini = 0.18<br/>samples = 10<br/>value = [1, 9]<br/>class = 1>, fillcolor="#4fa8e8"] ;
117 -> 127 ;
128 [label=<gini = 0.0<br/>samples = 1<br/>value = [1, 0]<br/>class = 0>, fillcolor="#e58139"] ;
127 -> 128 ;
129 [label=<gini = 0.0<br/>samples = 9<br/>value = [0, 9]<br/>class = 1>, fillcolor="#399de5"] ;
127 -> 129 ;
130 [label=<distant_to_goal &le; 8.052<br/>gini = 0.444<br/>samples = 42<br/>value = [14, 28]<br/>class = 1>, fillcolor="#9ccef2"] ;
116 -> 130 ;
131 [label=<angle_to_goal &le; 1.246<br/>gini = 0.346<br/>samples = 36<br/>value = [8, 28]<br/>class = 1>, fillcolor="#72b9ec"] ;
130 -> 131 ;
132 [label=<distant_to_goal &le; 7.1<br/>gini = 0.291<br/>samples = 34<br/>value = [6, 28]<br/>class = 1>, fillcolor="#63b2eb"] ;
131 -> 132 ;
133 [label=<gini = 0.0<br/>samples = 2<br/>value = [2, 0]<br/>class = 0>, fillcolor="#e58139"] ;
132 -> 133 ;
134 [label=<angle_to_goal &le; 0.255<br/>gini = 0.219<br/>samples = 32<br/>value = [4, 28]<br/>class = 1>, fillcolor="#55abe9"] ;
132 -> 134 ;
135 [label=<gini = 0.0<br/>samples = 1<br/>value = [1, 0]<br/>class = 0>, fillcolor="#e58139"] ;
134 -> 135 ;
136 [label=<within_10 &le; 10.5<br/>gini = 0.175<br/>samples = 31<br/>value = [3, 28]<br/>class = 1>, fillcolor="#4ea8e8"] ;
134 -> 136 ;
137 [label=<gini = 0.124<br/>samples = 30<br/>value = [2, 28]<br/>class = 1>, fillcolor="#47a4e7"] ;
136 -> 137 ;
138 [label=<gini = 0.0<br/>samples = 1<br/>value = [1, 0]<br/>class = 0>, fillcolor="#e58139"] ;
136 -> 138 ;
139 [label=<gini = 0.0<br/>samples = 2<br/>value = [2, 0]<br/>class = 0>, fillcolor="#e58139"] ;
131 -> 139 ;
140 [label=<gini = 0.0<br/>samples = 6<br/>value = [6, 0]<br/>class = 0>, fillcolor="#e58139"] ;
130 -> 140 ;
141 [label=<distant_to_goal &le; 8.175<br/>gini = 0.4<br/>samples = 29<br/>value = [8, 21]<br/>class = 1>, fillcolor="#84c2ef"] ;
115 -> 141 ;
142 [label=<gini = 0.0<br/>samples = 6<br/>value = [6, 0]<br/>class = 0>, fillcolor="#e58139"] ;
141 -> 142 ;
143 [label=<players_between_goal &le; 4.5<br/>gini = 0.159<br/>samples = 23<br/>value = [2, 21]<br/>class = 1>, fillcolor="#4ca6e7"] ;
141 -> 143 ;
144 [label=<within_5 &le; 1.5<br/>gini = 0.087<br/>samples = 22<br/>value = [1, 21]<br/>class = 1>, fillcolor="#42a2e6"] ;
143 -> 144 ;
145 [label=<gini = 0.0<br/>samples = 1<br/>value = [1, 0]<br/>class = 0>, fillcolor="#e58139"] ;
144 -> 145 ;
146 [label=<gini = 0.0<br/>samples = 21<br/>value = [0, 21]<br/>class = 1>, fillcolor="#399de5"] ;
144 -> 146 ;
147 [label=<gini = 0.0<br/>samples = 1<br/>value = [1, 0]<br/>class = 0>, fillcolor="#e58139"] ;
143 -> 147 ;
148 [label=<gini = 0.0<br/>samples = 27<br/>value = [27, 0]<br/>class = 0>, fillcolor="#e58139"] ;
114 -> 148 ;
149 [label=<gini = 0.0<br/>samples = 56<br/>value = [56, 0]<br/>class = 0>, fillcolor="#e58139"] ;
109 -> 149 ;
150 [label=<distant_to_goal &le; 19.378<br/>gini = 0.227<br/>samples = 2246<br/>value = [1953, 293]<br/>class = 0>, fillcolor="#e99457"] ;
108 -> 150 ;
151 [label=<duration &le; 0.019<br/>gini = 0.221<br/>samples = 2232<br/>value = [1950, 282]<br/>class = 0>, fillcolor="#e99356"] ;
150 -> 151 ;
152 [label=<players_between_goal &le; 3.5<br/>gini = 0.455<br/>samples = 60<br/>value = [39, 21]<br/>class = 0>, fillcolor="#f3c5a4"] ;
151 -> 152 ;
153 [label=<gini = 0.0<br/>samples = 37<br/>value = [37, 0]<br/>class = 0>, fillcolor="#e58139"] ;
152 -> 153 ;
154 [label=<play_pattern &le; 1.0<br/>gini = 0.159<br/>samples = 23<br/>value = [2, 21]<br/>class = 1>, fillcolor="#4ca6e7"] ;
152 -> 154 ;
155 [label=<gini = 0.0<br/>samples = 2<br/>value = [2, 0]<br/>class = 0>, fillcolor="#e58139"] ;
154 -> 155 ;
156 [label=<gini = 0.0<br/>samples = 21<br/>value = [0, 21]<br/>class = 1>, fillcolor="#399de5"] ;
154 -> 156 ;
157 [label=<distant_to_goal &le; 10.285<br/>gini = 0.211<br/>samples = 2172<br/>value = [1911, 261]<br/>class = 0>, fillcolor="#e99254"] ;
151 -> 157 ;
158 [label=<duration &le; 0.075<br/>gini = 0.041<br/>samples = 236<br/>value = [231, 5]<br/>class = 0>, fillcolor="#e6843d"] ;
157 -> 158 ;
159 [label=<duration &le; 0.075<br/>gini = 0.239<br/>samples = 36<br/>value = [31, 5]<br/>class = 0>, fillcolor="#e99559"] ;
158 -> 159 ;
160 [label=<gini = 0.0<br/>samples = 31<br/>value = [31, 0]<br/>class = 0>, fillcolor="#e58139"] ;
159 -> 160 ;
161 [label=<gini = 0.0<br/>samples = 5<br/>value = [0, 5]<br/>class = 1>, fillcolor="#399de5"] ;
159 -> 161 ;
162 [label=<gini = 0.0<br/>samples = 200<br/>value = [200, 0]<br/>class = 0>, fillcolor="#e58139"] ;
158 -> 162 ;
163 [label=<distant_to_goal &le; 10.298<br/>gini = 0.229<br/>samples = 1936<br/>value = [1680, 256]<br/>class = 0>, fillcolor="#e99457"] ;
157 -> 163 ;
164 [label=<within_5 &le; 1.5<br/>gini = 0.455<br/>samples = 20<br/>value = [7, 13]<br/>class = 1>, fillcolor="#a4d2f3"] ;
163 -> 164 ;
165 [label=<gini = 0.0<br/>samples = 13<br/>value = [0, 13]<br/>class = 1>, fillcolor="#399de5"] ;
164 -> 165 ;
166 [label=<gini = 0.0<br/>samples = 7<br/>value = [7, 0]<br/>class = 0>, fillcolor="#e58139"] ;
164 -> 166 ;
167 [label=<angle_to_goal &le; 0.467<br/>gini = 0.221<br/>samples = 1916<br/>value = [1673, 243]<br/>class = 0>, fillcolor="#e99356"] ;
163 -> 167 ;
168 [label=<distant_to_goal &le; 10.455<br/>gini = 0.152<br/>samples = 748<br/>value = [686, 62]<br/>class = 0>, fillcolor="#e78c4b"] ;
167 -> 168 ;
169 [label=<distant_to_goal &le; 10.447<br/>gini = 0.498<br/>samples = 15<br/>value = [7, 8]<br/>class = 1>, fillcolor="#e6f3fc"] ;
168 -> 169 ;
170 [label=<gini = 0.0<br/>samples = 7<br/>value = [7, 0]<br/>class = 0>, fillcolor="#e58139"] ;
169 -> 170 ;
171 [label=<gini = 0.0<br/>samples = 8<br/>value = [0, 8]<br/>class = 1>, fillcolor="#399de5"] ;
169 -> 171 ;
172 [label=<angle_to_goal &le; 0.03<br/>gini = 0.136<br/>samples = 733<br/>value = [679, 54]<br/>class = 0>, fillcolor="#e78b49"] ;
168 -> 172 ;
173 [label=<angle_to_goal &le; 0.029<br/>gini = 0.385<br/>samples = 50<br/>value = [37, 13]<br/>class = 0>, fillcolor="#eead7f"] ;
172 -> 173 ;
174 [label=<gini = 0.0<br/>samples = 37<br/>value = [37, 0]<br/>class = 0>, fillcolor="#e58139"] ;
173 -> 174 ;
175 [label=<gini = 0.0<br/>samples = 13<br/>value = [0, 13]<br/>class = 1>, fillcolor="#399de5"] ;
173 -> 175 ;
176 [label=<duration &le; 0.271<br/>gini = 0.113<br/>samples = 683<br/>value = [642, 41]<br/>class = 0>, fillcolor="#e78946"] ;
172 -> 176 ;
177 [label=<play_pattern &le; 5.5<br/>gini = 0.097<br/>samples = 665<br/>value = [631, 34]<br/>class = 0>, fillcolor="#e68844"] ;
176 -> 177 ;
178 [label=<gini = 0.0<br/>samples = 266<br/>value = [266, 0]<br/>class = 0>, fillcolor="#e58139"] ;
177 -> 178 ;
179 [label=<duration &le; 0.173<br/>gini = 0.156<br/>samples = 399<br/>value = [365, 34]<br/>class = 0>, fillcolor="#e78d4b"] ;
177 -> 179 ;
180 [label=<duration &le; 0.173<br/>gini = 0.227<br/>samples = 260<br/>value = [226, 34]<br/>class = 0>, fillcolor="#e99457"] ;
179 -> 180 ;
181 [label=<gini = 0.185<br/>samples = 252<br/>value = [226, 26]<br/>class = 0>, fillcolor="#e88f50"] ;
180 -> 181 ;
182 [label=<gini = 0.0<br/>samples = 8<br/>value = [0, 8]<br/>class = 1>, fillcolor="#399de5"] ;
180 -> 182 ;
183 [label=<gini = 0.0<br/>samples = 139<br/>value = [139, 0]<br/>class = 0>, fillcolor="#e58139"] ;
179 -> 183 ;
184 [label=<duration &le; 0.271<br/>gini = 0.475<br/>samples = 18<br/>value = [11, 7]<br/>class = 0>, fillcolor="#f6d1b7"] ;
176 -> 184 ;
185 [label=<gini = 0.0<br/>samples = 7<br/>value = [0, 7]<br/>class = 1>, fillcolor="#399de5"] ;
184 -> 185 ;
186 [label=<gini = 0.0<br/>samples = 11<br/>value = [11, 0]<br/>class = 0>, fillcolor="#e58139"] ;
184 -> 186 ;
187 [label=<angle_to_goal &le; 0.539<br/>gini = 0.262<br/>samples = 1168<br/>value = [987, 181]<br/>class = 0>, fillcolor="#ea985d"] ;
167 -> 187 ;
188 [label=<distant_to_goal &le; 16.566<br/>gini = 0.45<br/>samples = 155<br/>value = [102, 53]<br/>class = 0>, fillcolor="#f3c2a0"] ;
187 -> 188 ;
189 [label=<distant_to_goal &le; 15.435<br/>gini = 0.498<br/>samples = 113<br/>value = [60, 53]<br/>class = 0>, fillcolor="#fcf0e8"] ;
188 -> 189 ;
190 [label=<within_10 &le; 6.5<br/>gini = 0.398<br/>samples = 62<br/>value = [45, 17]<br/>class = 0>, fillcolor="#efb184"] ;
189 -> 190 ;
191 [label=<within_10 &le; 5.5<br/>gini = 0.497<br/>samples = 37<br/>value = [20, 17]<br/>class = 0>, fillcolor="#fbece1"] ;
190 -> 191 ;
192 [label=<duration &le; 0.049<br/>gini = 0.266<br/>samples = 19<br/>value = [16, 3]<br/>class = 0>, fillcolor="#ea995e"] ;
191 -> 192 ;
193 [label=<gini = 0.0<br/>samples = 3<br/>value = [0, 3]<br/>class = 1>, fillcolor="#399de5"] ;
192 -> 193 ;
194 [label=<gini = 0.0<br/>samples = 16<br/>value = [16, 0]<br/>class = 0>, fillcolor="#e58139"] ;
192 -> 194 ;
195 [label=<angle_to_goal &le; 0.503<br/>gini = 0.346<br/>samples = 18<br/>value = [4, 14]<br/>class = 1>, fillcolor="#72b9ec"] ;
191 -> 195 ;
196 [label=<gini = 0.0<br/>samples = 4<br/>value = [4, 0]<br/>class = 0>, fillcolor="#e58139"] ;
195 -> 196 ;
197 [label=<gini = 0.0<br/>samples = 14<br/>value = [0, 14]<br/>class = 1>, fillcolor="#399de5"] ;
195 -> 197 ;
198 [label=<gini = 0.0<br/>samples = 25<br/>value = [25, 0]<br/>class = 0>, fillcolor="#e58139"] ;
190 -> 198 ;
199 [label=<within_10 &le; 4.5<br/>gini = 0.415<br/>samples = 51<br/>value = [15, 36]<br/>class = 1>, fillcolor="#8bc6f0"] ;
189 -> 199 ;
200 [label=<gini = 0.0<br/>samples = 5<br/>value = [5, 0]<br/>class = 0>, fillcolor="#e58139"] ;
199 -> 200 ;
201 [label=<play_pattern &le; 2.5<br/>gini = 0.34<br/>samples = 46<br/>value = [10, 36]<br/>class = 1>, fillcolor="#70b8ec"] ;
199 -> 201 ;
202 [label=<duration &le; 0.051<br/>gini = 0.069<br/>samples = 28<br/>value = [1, 27]<br/>class = 1>, fillcolor="#40a1e6"] ;
201 -> 202 ;
203 [label=<gini = 0.0<br/>samples = 1<br/>value = [1, 0]<br/>class = 0>, fillcolor="#e58139"] ;
202 -> 203 ;
204 [label=<gini = 0.0<br/>samples = 27<br/>value = [0, 27]<br/>class = 1>, fillcolor="#399de5"] ;
202 -> 204 ;
205 [label=<within_1 &le; 0.5<br/>gini = 0.5<br/>samples = 18<br/>value = [9, 9]<br/>class = 0>, fillcolor="#ffffff"] ;
201 -> 205 ;
206 [label=<gini = 0.0<br/>samples = 9<br/>value = [9, 0]<br/>class = 0>, fillcolor="#e58139"] ;
205 -> 206 ;
207 [label=<gini = 0.0<br/>samples = 9<br/>value = [0, 9]<br/>class = 1>, fillcolor="#399de5"] ;
205 -> 207 ;
208 [label=<gini = 0.0<br/>samples = 42<br/>value = [42, 0]<br/>class = 0>, fillcolor="#e58139"] ;
188 -> 208 ;
209 [label=<angle_to_goal &le; 1.14<br/>gini = 0.221<br/>samples = 1013<br/>value = [885, 128]<br/>class = 0>, fillcolor="#e99356"] ;
187 -> 209 ;
210 [label=<angle_to_goal &le; 1.008<br/>gini = 0.248<br/>samples = 883<br/>value = [755, 128]<br/>class = 0>, fillcolor="#e9965b"] ;
209 -> 210 ;
211 [label=<angle_to_goal &le; 0.818<br/>gini = 0.192<br/>samples = 715<br/>value = [638, 77]<br/>class = 0>, fillcolor="#e89051"] ;
210 -> 211 ;
212 [label=<angle_to_goal &le; 0.817<br/>gini = 0.249<br/>samples = 493<br/>value = [421, 72]<br/>class = 0>, fillcolor="#e9975b"] ;
211 -> 212 ;
213 [label=<angle_to_goal &le; 0.648<br/>gini = 0.225<br/>samples = 481<br/>value = [419, 62]<br/>class = 0>, fillcolor="#e99456"] ;
212 -> 213 ;
214 [label=<gini = 0.083<br/>samples = 184<br/>value = [176, 8]<br/>class = 0>, fillcolor="#e68742"] ;
213 -> 214 ;
215 [label=<gini = 0.298<br/>samples = 297<br/>value = [243, 54]<br/>class = 0>, fillcolor="#eb9d65"] ;
213 -> 215 ;
216 [label=<within_10 &le; 4.0<br/>gini = 0.278<br/>samples = 12<br/>value = [2, 10]<br/>class = 1>, fillcolor="#61b1ea"] ;
212 -> 216 ;
217 [label=<gini = 0.0<br/>samples = 10<br/>value = [0, 10]<br/>class = 1>, fillcolor="#399de5"] ;
216 -> 217 ;
218 [label=<gini = 0.0<br/>samples = 2<br/>value = [2, 0]<br/>class = 0>, fillcolor="#e58139"] ;
216 -> 218 ;
219 [label=<duration &le; 0.238<br/>gini = 0.044<br/>samples = 222<br/>value = [217, 5]<br/>class = 0>, fillcolor="#e6843e"] ;
211 -> 219 ;
220 [label=<gini = 0.0<br/>samples = 183<br/>value = [183, 0]<br/>class = 0>, fillcolor="#e58139"] ;
219 -> 220 ;
221 [label=<duration &le; 0.239<br/>gini = 0.224<br/>samples = 39<br/>value = [34, 5]<br/>class = 0>, fillcolor="#e99456"] ;
219 -> 221 ;
222 [label=<gini = 0.0<br/>samples = 5<br/>value = [0, 5]<br/>class = 1>, fillcolor="#399de5"] ;
221 -> 222 ;
223 [label=<gini = 0.0<br/>samples = 34<br/>value = [34, 0]<br/>class = 0>, fillcolor="#e58139"] ;
221 -> 223 ;
224 [label=<angle_to_goal &le; 1.013<br/>gini = 0.423<br/>samples = 168<br/>value = [117, 51]<br/>class = 0>, fillcolor="#f0b88f"] ;
210 -> 224 ;
225 [label=<distant_to_goal &le; 15.115<br/>gini = 0.337<br/>samples = 28<br/>value = [6, 22]<br/>class = 1>, fillcolor="#6fb8ec"] ;
224 -> 225 ;
226 [label=<gini = 0.0<br/>samples = 22<br/>value = [0, 22]<br/>class = 1>, fillcolor="#399de5"] ;
225 -> 226 ;
227 [label=<gini = 0.0<br/>samples = 6<br/>value = [6, 0]<br/>class = 0>, fillcolor="#e58139"] ;
225 -> 227 ;
228 [label=<angle_to_goal &le; 1.139<br/>gini = 0.328<br/>samples = 140<br/>value = [111, 29]<br/>class = 0>, fillcolor="#eca26d"] ;
224 -> 228 ;
229 [label=<distant_to_goal &le; 18.474<br/>gini = 0.284<br/>samples = 134<br/>value = [111, 23]<br/>class = 0>, fillcolor="#ea9b62"] ;
228 -> 229 ;
230 [label=<gini = 0.209<br/>samples = 118<br/>value = [104, 14]<br/>class = 0>, fillcolor="#e89254"] ;
229 -> 230 ;
231 [label=<gini = 0.492<br/>samples = 16<br/>value = [7, 9]<br/>class = 1>, fillcolor="#d3e9f9"] ;
229 -> 231 ;
232 [label=<gini = 0.0<br/>samples = 6<br/>value = [0, 6]<br/>class = 1>, fillcolor="#399de5"] ;
228 -> 232 ;
233 [label=<gini = 0.0<br/>samples = 130<br/>value = [130, 0]<br/>class = 0>, fillcolor="#e58139"] ;
209 -> 233 ;
234 [label=<within_5 &le; 3.5<br/>gini = 0.337<br/>samples = 14<br/>value = [3, 11]<br/>class = 1>, fillcolor="#6fb8ec"] ;
150 -> 234 ;
235 [label=<gini = 0.0<br/>samples = 3<br/>value = [3, 0]<br/>class = 0>, fillcolor="#e58139"] ;
234 -> 235 ;
236 [label=<gini = 0.0<br/>samples = 11<br/>value = [0, 11]<br/>class = 1>, fillcolor="#399de5"] ;
234 -> 236 ;
237 [label=<players_between_goal &le; 1.5<br/>gini = 0.442<br/>samples = 24757<br/>value = [8169, 16588]<br/>class = 1>, fillcolor="#9bcdf2"] ;
1 -> 237 ;
238 [label=<distant_to_goal &le; 8.947<br/>gini = 0.399<br/>samples = 17596<br/>value = [4850, 12746]<br/>class = 1>, fillcolor="#84c2ef"] ;
237 -> 238 ;
239 [label=<players_between_goal &le; 0.5<br/>gini = 0.266<br/>samples = 5788<br/>value = [913, 4875]<br/>class = 1>, fillcolor="#5eafea"] ;
238 -> 239 ;
240 [label=<angle_to_goal &le; 1.494<br/>gini = 0.102<br/>samples = 1305<br/>value = [70, 1235]<br/>class = 1>, fillcolor="#44a3e6"] ;
239 -> 240 ;
241 [label=<duration &le; 1.016<br/>gini = 0.096<br/>samples = 1301<br/>value = [66, 1235]<br/>class = 1>, fillcolor="#44a2e6"] ;
240 -> 241 ;
242 [label=<angle_to_goal &le; 1.439<br/>gini = 0.081<br/>samples = 1202<br/>value = [51, 1151]<br/>class = 1>, fillcolor="#42a1e6"] ;
241 -> 242 ;
243 [label=<within_5 &le; 6.5<br/>gini = 0.078<br/>samples = 1200<br/>value = [49, 1151]<br/>class = 1>, fillcolor="#41a1e6"] ;
242 -> 243 ;
244 [label=<within_10 &le; 10.5<br/>gini = 0.077<br/>samples = 1199<br/>value = [48, 1151]<br/>class = 1>, fillcolor="#41a1e6"] ;
243 -> 244 ;
245 [label=<distant_to_goal &le; 5.865<br/>gini = 0.071<br/>samples = 1162<br/>value = [43, 1119]<br/>class = 1>, fillcolor="#41a1e6"] ;
244 -> 245 ;
246 [label=<within_10 &le; 1.0<br/>gini = 0.043<br/>samples = 592<br/>value = [13, 579]<br/>class = 1>, fillcolor="#3d9fe6"] ;
245 -> 246 ;
247 [label=<gini = 0.0<br/>samples = 1<br/>value = [1, 0]<br/>class = 0>, fillcolor="#e58139"] ;
246 -> 247 ;
248 [label=<within_10 &le; 6.5<br/>gini = 0.04<br/>samples = 591<br/>value = [12, 579]<br/>class = 1>, fillcolor="#3d9fe6"] ;
246 -> 248 ;
249 [label=<angle_to_goal &le; 0.56<br/>gini = 0.029<br/>samples = 481<br/>value = [7, 474]<br/>class = 1>, fillcolor="#3c9ee5"] ;
248 -> 249 ;
250 [label=<angle_to_goal &le; 0.53<br/>gini = 0.071<br/>samples = 109<br/>value = [4, 105]<br/>class = 1>, fillcolor="#41a1e6"] ;
249 -> 250 ;
251 [label=<gini = 0.054<br/>samples = 108<br/>value = [3, 105]<br/>class = 1>, fillcolor="#3fa0e6"] ;
250 -> 251 ;
252 [label=<gini = 0.0<br/>samples = 1<br/>value = [1, 0]<br/>class = 0>, fillcolor="#e58139"] ;
250 -> 252 ;
253 [label=<angle_to_goal &le; 1.369<br/>gini = 0.016<br/>samples = 372<br/>value = [3, 369]<br/>class = 1>, fillcolor="#3b9ee5"] ;
249 -> 253 ;
254 [label=<gini = 0.011<br/>samples = 353<br/>value = [2, 351]<br/>class = 1>, fillcolor="#3a9ee5"] ;
253 -> 254 ;
255 [label=<gini = 0.1<br/>samples = 19<br/>value = [1, 18]<br/>class = 1>, fillcolor="#44a2e6"] ;
253 -> 255 ;
256 [label=<distant_to_goal &le; 5.121<br/>gini = 0.087<br/>samples = 110<br/>value = [5, 105]<br/>class = 1>, fillcolor="#42a2e6"] ;
248 -> 256 ;
257 [label=<within_5 &le; 2.5<br/>gini = 0.054<br/>samples = 108<br/>value = [3, 105]<br/>class = 1>, fillcolor="#3fa0e6"] ;
256 -> 257 ;
258 [label=<gini = 0.188<br/>samples = 19<br/>value = [2, 17]<br/>class = 1>, fillcolor="#50a9e8"] ;
257 -> 258 ;
259 [label=<gini = 0.022<br/>samples = 89<br/>value = [1, 88]<br/>class = 1>, fillcolor="#3b9ee5"] ;
257 -> 259 ;
260 [label=<gini = 0.0<br/>samples = 2<br/>value = [2, 0]<br/>class = 0>, fillcolor="#e58139"] ;
256 -> 260 ;
261 [label=<angle_to_goal &le; 1.407<br/>gini = 0.1<br/>samples = 570<br/>value = [30, 540]<br/>class = 1>, fillcolor="#44a2e6"] ;
245 -> 261 ;
262 [label=<distant_to_goal &le; 5.878<br/>gini = 0.097<br/>samples = 569<br/>value = [29, 540]<br/>class = 1>, fillcolor="#44a2e6"] ;
261 -> 262 ;
263 [label=<gini = 0.0<br/>samples = 1<br/>value = [1, 0]<br/>class = 0>, fillcolor="#e58139"] ;
262 -> 263 ;
264 [label=<angle_to_goal &le; 1.211<br/>gini = 0.094<br/>samples = 568<br/>value = [28, 540]<br/>class = 1>, fillcolor="#43a2e6"] ;
262 -> 264 ;
265 [label=<duration &le; 0.608<br/>gini = 0.081<br/>samples = 541<br/>value = [23, 518]<br/>class = 1>, fillcolor="#42a1e6"] ;
264 -> 265 ;
266 [label=<gini = 0.132<br/>samples = 253<br/>value = [18, 235]<br/>class = 1>, fillcolor="#48a5e7"] ;
265 -> 266 ;
267 [label=<gini = 0.034<br/>samples = 288<br/>value = [5, 283]<br/>class = 1>, fillcolor="#3c9fe5"] ;
265 -> 267 ;
268 [label=<play_pattern &le; 3.5<br/>gini = 0.302<br/>samples = 27<br/>value = [5, 22]<br/>class = 1>, fillcolor="#66b3eb"] ;
264 -> 268 ;
269 [label=<gini = 0.153<br/>samples = 24<br/>value = [2, 22]<br/>class = 1>, fillcolor="#4ba6e7"] ;
268 -> 269 ;
270 [label=<gini = 0.0<br/>samples = 3<br/>value = [3, 0]<br/>class = 0>, fillcolor="#e58139"] ;
268 -> 270 ;
271 [label=<gini = 0.0<br/>samples = 1<br/>value = [1, 0]<br/>class = 0>, fillcolor="#e58139"] ;
261 -> 271 ;
272 [label=<duration &le; 0.821<br/>gini = 0.234<br/>samples = 37<br/>value = [5, 32]<br/>class = 1>, fillcolor="#58ace9"] ;
244 -> 272 ;
273 [label=<within_1 &le; 0.5<br/>gini = 0.157<br/>samples = 35<br/>value = [3, 32]<br/>class = 1>, fillcolor="#4ca6e7"] ;
272 -> 273 ;
274 [label=<angle_to_goal &le; 1.2<br/>gini = 0.111<br/>samples = 34<br/>value = [2, 32]<br/>class = 1>, fillcolor="#45a3e7"] ;
273 -> 274 ;
275 [label=<angle_to_goal &le; 0.699<br/>gini = 0.059<br/>samples = 33<br/>value = [1, 32]<br/>class = 1>, fillcolor="#3fa0e6"] ;
274 -> 275 ;
276 [label=<gini = 0.0<br/>samples = 23<br/>value = [0, 23]<br/>class = 1>, fillcolor="#399de5"] ;
275 -> 276 ;
277 [label=<distant_to_goal &le; 4.162<br/>gini = 0.18<br/>samples = 10<br/>value = [1, 9]<br/>class = 1>, fillcolor="#4fa8e8"] ;
275 -> 277 ;
278 [label=<gini = 0.0<br/>samples = 9<br/>value = [0, 9]<br/>class = 1>, fillcolor="#399de5"] ;
277 -> 278 ;
279 [label=<gini = 0.0<br/>samples = 1<br/>value = [1, 0]<br/>class = 0>, fillcolor="#e58139"] ;
277 -> 279 ;
280 [label=<gini = 0.0<br/>samples = 1<br/>value = [1, 0]<br/>class = 0>, fillcolor="#e58139"] ;
274 -> 280 ;
281 [label=<gini = 0.0<br/>samples = 1<br/>value = [1, 0]<br/>class = 0>, fillcolor="#e58139"] ;
273 -> 281 ;
282 [label=<gini = 0.0<br/>samples = 2<br/>value = [2, 0]<br/>class = 0>, fillcolor="#e58139"] ;
272 -> 282 ;
283 [label=<gini = 0.0<br/>samples = 1<br/>value = [1, 0]<br/>class = 0>, fillcolor="#e58139"] ;
243 -> 283 ;
284 [label=<gini = 0.0<br/>samples = 2<br/>value = [2, 0]<br/>class = 0>, fillcolor="#e58139"] ;
242 -> 284 ;
285 [label=<play_pattern &le; 1.5<br/>gini = 0.257<br/>samples = 99<br/>value = [15, 84]<br/>class = 1>, fillcolor="#5caeea"] ;
241 -> 285 ;
286 [label=<gini = 0.0<br/>samples = 4<br/>value = [4, 0]<br/>class = 0>, fillcolor="#e58139"] ;
285 -> 286 ;
287 [label=<duration &le; 1.081<br/>gini = 0.205<br/>samples = 95<br/>value = [11, 84]<br/>class = 1>, fillcolor="#53aae8"] ;
285 -> 287 ;
288 [label=<gini = 0.0<br/>samples = 3<br/>value = [3, 0]<br/>class = 0>, fillcolor="#e58139"] ;
287 -> 288 ;
289 [label=<within_10 &le; 8.5<br/>gini = 0.159<br/>samples = 92<br/>value = [8, 84]<br/>class = 1>, fillcolor="#4ca6e7"] ;
287 -> 289 ;
290 [label=<duration &le; 1.244<br/>gini = 0.142<br/>samples = 91<br/>value = [7, 84]<br/>class = 1>, fillcolor="#49a5e7"] ;
289 -> 290 ;
291 [label=<angle_to_goal &le; 1.103<br/>gini = 0.046<br/>samples = 42<br/>value = [1, 41]<br/>class = 1>, fillcolor="#3e9fe6"] ;
290 -> 291 ;
292 [label=<gini = 0.0<br/>samples = 34<br/>value = [0, 34]<br/>class = 1>, fillcolor="#399de5"] ;
291 -> 292 ;
293 [label=<duration &le; 1.138<br/>gini = 0.219<br/>samples = 8<br/>value = [1, 7]<br/>class = 1>, fillcolor="#55abe9"] ;
291 -> 293 ;
294 [label=<gini = 0.0<br/>samples = 7<br/>value = [0, 7]<br/>class = 1>, fillcolor="#399de5"] ;
293 -> 294 ;
295 [label=<gini = 0.0<br/>samples = 1<br/>value = [1, 0]<br/>class = 0>, fillcolor="#e58139"] ;
293 -> 295 ;
296 [label=<duration &le; 1.26<br/>gini = 0.215<br/>samples = 49<br/>value = [6, 43]<br/>class = 1>, fillcolor="#55abe9"] ;
290 -> 296 ;
297 [label=<gini = 0.0<br/>samples = 1<br/>value = [1, 0]<br/>class = 0>, fillcolor="#e58139"] ;
296 -> 297 ;
298 [label=<distant_to_goal &le; 4.414<br/>gini = 0.187<br/>samples = 48<br/>value = [5, 43]<br/>class = 1>, fillcolor="#50a8e8"] ;
296 -> 298 ;
299 [label=<gini = 0.0<br/>samples = 1<br/>value = [1, 0]<br/>class = 0>, fillcolor="#e58139"] ;
298 -> 299 ;
300 [label=<distant_to_goal &le; 8.785<br/>gini = 0.156<br/>samples = 47<br/>value = [4, 43]<br/>class = 1>, fillcolor="#4ba6e7"] ;
298 -> 300 ;
301 [label=<duration &le; 1.3<br/>gini = 0.122<br/>samples = 46<br/>value = [3, 43]<br/>class = 1>, fillcolor="#47a4e7"] ;
300 -> 301 ;
302 [label=<gini = 0.444<br/>samples = 6<br/>value = [2, 4]<br/>class = 1>, fillcolor="#9ccef2"] ;
301 -> 302 ;
303 [label=<gini = 0.049<br/>samples = 40<br/>value = [1, 39]<br/>class = 1>, fillcolor="#3ea0e6"] ;
301 -> 303 ;
304 [label=<gini = 0.0<br/>samples = 1<br/>value = [1, 0]<br/>class = 0>, fillcolor="#e58139"] ;
300 -> 304 ;
305 [label=<gini = 0.0<br/>samples = 1<br/>value = [1, 0]<br/>class = 0>, fillcolor="#e58139"] ;
289 -> 305 ;
306 [label=<gini = 0.0<br/>samples = 4<br/>value = [4, 0]<br/>class = 0>, fillcolor="#e58139"] ;
240 -> 306 ;
307 [label=<duration &le; 1.975<br/>gini = 0.305<br/>samples = 4483<br/>value = [843, 3640]<br/>class = 1>, fillcolor="#67b4eb"] ;
239 -> 307 ;
308 [label=<distant_to_goal &le; 6.402<br/>gini = 0.3<br/>samples = 4450<br/>value = [818, 3632]<br/>class = 1>, fillcolor="#66b3eb"] ;
307 -> 308 ;
309 [label=<duration &le; 1.776<br/>gini = 0.219<br/>samples = 1721<br/>value = [215, 1506]<br/>class = 1>, fillcolor="#55abe9"] ;
308 -> 309 ;
310 [label=<distant_to_goal &le; 4.793<br/>gini = 0.212<br/>samples = 1713<br/>value = [207, 1506]<br/>class = 1>, fillcolor="#54aae9"] ;
309 -> 310 ;
311 [label=<angle_to_goal &le; 0.619<br/>gini = 0.138<br/>samples = 669<br/>value = [50, 619]<br/>class = 1>, fillcolor="#49a5e7"] ;
310 -> 311 ;
312 [label=<within_1 &le; 0.5<br/>gini = 0.251<br/>samples = 143<br/>value = [21, 122]<br/>class = 1>, fillcolor="#5baee9"] ;
311 -> 312 ;
313 [label=<angle_to_goal &le; 0.585<br/>gini = 0.172<br/>samples = 126<br/>value = [12, 114]<br/>class = 1>, fillcolor="#4ea7e8"] ;
312 -> 313 ;
314 [label=<within_10 &le; 10.5<br/>gini = 0.148<br/>samples = 124<br/>value = [10, 114]<br/>class = 1>, fillcolor="#4aa6e7"] ;
313 -> 314 ;
315 [label=<within_10 &le; 3.5<br/>gini = 0.123<br/>samples = 122<br/>value = [8, 114]<br/>class = 1>, fillcolor="#47a4e7"] ;
314 -> 315 ;
316 [label=<gini = 0.0<br/>samples = 1<br/>value = [1, 0]<br/>class = 0>, fillcolor="#e58139"] ;
315 -> 316 ;
317 [label=<duration &le; 0.375<br/>gini = 0.109<br/>samples = 121<br/>value = [7, 114]<br/>class = 1>, fillcolor="#45a3e7"] ;
315 -> 317 ;
318 [label=<gini = 0.0<br/>samples = 34<br/>value = [0, 34]<br/>class = 1>, fillcolor="#399de5"] ;
317 -> 318 ;
319 [label=<gini = 0.148<br/>samples = 87<br/>value = [7, 80]<br/>class = 1>, fillcolor="#4aa6e7"] ;
317 -> 319 ;
320 [label=<gini = 0.0<br/>samples = 2<br/>value = [2, 0]<br/>class = 0>, fillcolor="#e58139"] ;
314 -> 320 ;
321 [label=<gini = 0.0<br/>samples = 2<br/>value = [2, 0]<br/>class = 0>, fillcolor="#e58139"] ;
313 -> 321 ;
322 [label=<within_10 &le; 14.0<br/>gini = 0.498<br/>samples = 17<br/>value = [9, 8]<br/>class = 0>, fillcolor="#fcf1e9"] ;
312 -> 322 ;
323 [label=<gini = 0.0<br/>samples = 9<br/>value = [9, 0]<br/>class = 0>, fillcolor="#e58139"] ;
322 -> 323 ;
324 [label=<gini = 0.0<br/>samples = 8<br/>value = [0, 8]<br/>class = 1>, fillcolor="#399de5"] ;
322 -> 324 ;
325 [label=<within_5 &le; 5.5<br/>gini = 0.104<br/>samples = 526<br/>value = [29, 497]<br/>class = 1>, fillcolor="#45a3e7"] ;
311 -> 325 ;
326 [label=<duration &le; 0.328<br/>gini = 0.085<br/>samples = 450<br/>value = [20, 430]<br/>class = 1>, fillcolor="#42a2e6"] ;
325 -> 326 ;
327 [label=<duration &le; 0.326<br/>gini = 0.191<br/>samples = 28<br/>value = [3, 25]<br/>class = 1>, fillcolor="#51a9e8"] ;
326 -> 327 ;
328 [label=<within_1 &le; 0.5<br/>gini = 0.074<br/>samples = 26<br/>value = [1, 25]<br/>class = 1>, fillcolor="#41a1e6"] ;
327 -> 328 ;
329 [label=<gini = 0.0<br/>samples = 25<br/>value = [0, 25]<br/>class = 1>, fillcolor="#399de5"] ;
328 -> 329 ;
330 [label=<gini = 0.0<br/>samples = 1<br/>value = [1, 0]<br/>class = 0>, fillcolor="#e58139"] ;
328 -> 330 ;
331 [label=<gini = 0.0<br/>samples = 2<br/>value = [2, 0]<br/>class = 0>, fillcolor="#e58139"] ;
327 -> 331 ;
332 [label=<distant_to_goal &le; 3.861<br/>gini = 0.077<br/>samples = 422<br/>value = [17, 405]<br/>class = 1>, fillcolor="#41a1e6"] ;
326 -> 332 ;
333 [label=<distant_to_goal &le; 3.75<br/>gini = 0.106<br/>samples = 231<br/>value = [13, 218]<br/>class = 1>, fillcolor="#45a3e7"] ;
332 -> 333 ;
334 [label=<within_1 &le; 0.5<br/>gini = 0.099<br/>samples = 230<br/>value = [12, 218]<br/>class = 1>, fillcolor="#44a2e6"] ;
333 -> 334 ;
335 [label=<gini = 0.129<br/>samples = 173<br/>value = [12, 161]<br/>class = 1>, fillcolor="#48a4e7"] ;
334 -> 335 ;
336 [label=<gini = 0.0<br/>samples = 57<br/>value = [0, 57]<br/>class = 1>, fillcolor="#399de5"] ;
334 -> 336 ;
337 [label=<gini = 0.0<br/>samples = 1<br/>value = [1, 0]<br/>class = 0>, fillcolor="#e58139"] ;
333 -> 337 ;
338 [label=<duration &le; 0.354<br/>gini = 0.041<br/>samples = 191<br/>value = [4, 187]<br/>class = 1>, fillcolor="#3d9fe6"] ;
332 -> 338 ;
339 [label=<gini = 0.0<br/>samples = 1<br/>value = [1, 0]<br/>class = 0>, fillcolor="#e58139"] ;
338 -> 339 ;
340 [label=<angle_to_goal &le; 1.225<br/>gini = 0.031<br/>samples = 190<br/>value = [3, 187]<br/>class = 1>, fillcolor="#3c9fe5"] ;
338 -> 340 ;
341 [label=<gini = 0.012<br/>samples = 165<br/>value = [1, 164]<br/>class = 1>, fillcolor="#3a9ee5"] ;
340 -> 341 ;
342 [label=<gini = 0.147<br/>samples = 25<br/>value = [2, 23]<br/>class = 1>, fillcolor="#4aa6e7"] ;
340 -> 342 ;
343 [label=<angle_to_goal &le; 0.913<br/>gini = 0.209<br/>samples = 76<br/>value = [9, 67]<br/>class = 1>, fillcolor="#54aae8"] ;
325 -> 343 ;
344 [label=<play_pattern &le; 1.0<br/>gini = 0.075<br/>samples = 51<br/>value = [2, 49]<br/>class = 1>, fillcolor="#41a1e6"] ;
343 -> 344 ;
345 [label=<angle_to_goal &le; 0.823<br/>gini = 0.039<br/>samples = 50<br/>value = [1, 49]<br/>class = 1>, fillcolor="#3d9fe6"] ;
344 -> 345 ;
346 [label=<duration &le; 1.092<br/>gini = 0.153<br/>samples = 12<br/>value = [1, 11]<br/>class = 1>, fillcolor="#4ba6e7"] ;
345 -> 346 ;
347 [label=<gini = 0.0<br/>samples = 1<br/>value = [1, 0]<br/>class = 0>, fillcolor="#e58139"] ;
346 -> 347 ;
348 [label=<gini = 0.0<br/>samples = 11<br/>value = [0, 11]<br/>class = 1>, fillcolor="#399de5"] ;
346 -> 348 ;
349 [label=<gini = 0.0<br/>samples = 38<br/>value = [0, 38]<br/>class = 1>, fillcolor="#399de5"] ;
345 -> 349 ;
350 [label=<gini = 0.0<br/>samples = 1<br/>value = [1, 0]<br/>class = 0>, fillcolor="#e58139"] ;
344 -> 350 ;
351 [label=<distant_to_goal &le; 3.788<br/>gini = 0.403<br/>samples = 25<br/>value = [7, 18]<br/>class = 1>, fillcolor="#86c3ef"] ;
343 -> 351 ;
352 [label=<within_10 &le; 11.5<br/>gini = 0.245<br/>samples = 21<br/>value = [3, 18]<br/>class = 1>, fillcolor="#5aade9"] ;
351 -> 352 ;
353 [label=<within_1 &le; 0.5<br/>gini = 0.18<br/>samples = 20<br/>value = [2, 18]<br/>class = 1>, fillcolor="#4fa8e8"] ;
352 -> 353 ;
354 [label=<gini = 0.1<br/>samples = 19<br/>value = [1, 18]<br/>class = 1>, fillcolor="#44a2e6"] ;
353 -> 354 ;
355 [label=<gini = 0.0<br/>samples = 1<br/>value = [1, 0]<br/>class = 0>, fillcolor="#e58139"] ;
353 -> 355 ;
356 [label=<gini = 0.0<br/>samples = 1<br/>value = [1, 0]<br/>class = 0>, fillcolor="#e58139"] ;
352 -> 356 ;
357 [label=<gini = 0.0<br/>samples = 4<br/>value = [4, 0]<br/>class = 0>, fillcolor="#e58139"] ;
351 -> 357 ;
358 [label=<duration &le; 0.872<br/>gini = 0.256<br/>samples = 1044<br/>value = [157, 887]<br/>class = 1>, fillcolor="#5caeea"] ;
310 -> 358 ;
359 [label=<distant_to_goal &le; 4.814<br/>gini = 0.22<br/>samples = 875<br/>value = [110, 765]<br/>class = 1>, fillcolor="#55abe9"] ;
358 -> 359 ;
360 [label=<gini = 0.0<br/>samples = 2<br/>value = [2, 0]<br/>class = 0>, fillcolor="#e58139"] ;
359 -> 360 ;
361 [label=<play_pattern &le; 2.5<br/>gini = 0.217<br/>samples = 873<br/>value = [108, 765]<br/>class = 1>, fillcolor="#55abe9"] ;
359 -> 361 ;
362 [label=<within_1 &le; 0.5<br/>gini = 0.277<br/>samples = 356<br/>value = [59, 297]<br/>class = 1>, fillcolor="#60b0ea"] ;
361 -> 362 ;
363 [label=<distant_to_goal &le; 6.329<br/>gini = 0.228<br/>samples = 313<br/>value = [41, 272]<br/>class = 1>, fillcolor="#57ace9"] ;
362 -> 363 ;
364 [label=<within_10 &le; 5.5<br/>gini = 0.207<br/>samples = 299<br/>value = [35, 264]<br/>class = 1>, fillcolor="#53aae8"] ;
363 -> 364 ;
365 [label=<gini = 0.404<br/>samples = 32<br/>value = [9, 23]<br/>class = 1>, fillcolor="#86c3ef"] ;
364 -> 365 ;
366 [label=<gini = 0.176<br/>samples = 267<br/>value = [26, 241]<br/>class = 1>, fillcolor="#4ea8e8"] ;
364 -> 366 ;
367 [label=<duration &le; 0.646<br/>gini = 0.49<br/>samples = 14<br/>value = [6, 8]<br/>class = 1>, fillcolor="#cee6f8"] ;
363 -> 367 ;
368 [label=<gini = 0.0<br/>samples = 6<br/>value = [6, 0]<br/>class = 0>, fillcolor="#e58139"] ;
367 -> 368 ;
369 [label=<gini = 0.0<br/>samples = 8<br/>value = [0, 8]<br/>class = 1>, fillcolor="#399de5"] ;
367 -> 369 ;
370 [label=<angle_to_goal &le; 0.731<br/>gini = 0.487<br/>samples = 43<br/>value = [18, 25]<br/>class = 1>, fillcolor="#c8e4f8"] ;
362 -> 370 ;
371 [label=<within_10 &le; 11.5<br/>gini = 0.389<br/>samples = 34<br/>value = [9, 25]<br/>class = 1>, fillcolor="#80c0ee"] ;
370 -> 371 ;
372 [label=<gini = 0.492<br/>samples = 16<br/>value = [9, 7]<br/>class = 0>, fillcolor="#f9e3d3"] ;
371 -> 372 ;
373 [label=<gini = 0.0<br/>samples = 18<br/>value = [0, 18]<br/>class = 1>, fillcolor="#399de5"] ;
371 -> 373 ;
374 [label=<gini = 0.0<br/>samples = 9<br/>value = [9, 0]<br/>class = 0>, fillcolor="#e58139"] ;
370 -> 374 ;
375 [label=<distant_to_goal &le; 4.96<br/>gini = 0.172<br/>samples = 517<br/>value = [49, 468]<br/>class = 1>, fillcolor="#4ea7e8"] ;
361 -> 375 ;
376 [label=<gini = 0.0<br/>samples = 1<br/>value = [1, 0]<br/>class = 0>, fillcolor="#e58139"] ;
375 -> 376 ;
377 [label=<duration &le; 0.694<br/>gini = 0.169<br/>samples = 516<br/>value = [48, 468]<br/>class = 1>, fillcolor="#4da7e8"] ;
375 -> 377 ;
378 [label=<duration &le; 0.538<br/>gini = 0.143<br/>samples = 440<br/>value = [34, 406]<br/>class = 1>, fillcolor="#4aa5e7"] ;
377 -> 378 ;
379 [label=<gini = 0.188<br/>samples = 247<br/>value = [26, 221]<br/>class = 1>, fillcolor="#50a9e8"] ;
378 -> 379 ;
380 [label=<gini = 0.079<br/>samples = 193<br/>value = [8, 185]<br/>class = 1>, fillcolor="#42a1e6"] ;
378 -> 380 ;
381 [label=<duration &le; 0.735<br/>gini = 0.301<br/>samples = 76<br/>value = [14, 62]<br/>class = 1>, fillcolor="#66b3eb"] ;
377 -> 381 ;
382 [label=<gini = 0.0<br/>samples = 7<br/>value = [7, 0]<br/>class = 0>, fillcolor="#e58139"] ;
381 -> 382 ;
383 [label=<gini = 0.182<br/>samples = 69<br/>value = [7, 62]<br/>class = 1>, fillcolor="#4fa8e8"] ;
381 -> 383 ;
384 [label=<play_pattern &le; 1.5<br/>gini = 0.402<br/>samples = 169<br/>value = [47, 122]<br/>class = 1>, fillcolor="#85c3ef"] ;
358 -> 384 ;
385 [label=<within_10 &le; 11.5<br/>gini = 0.417<br/>samples = 27<br/>value = [19, 8]<br/>class = 0>, fillcolor="#f0b68c"] ;
384 -> 385 ;
386 [label=<gini = 0.0<br/>samples = 17<br/>value = [17, 0]<br/>class = 0>, fillcolor="#e58139"] ;
385 -> 386 ;
387 [label=<within_5 &le; 5.0<br/>gini = 0.32<br/>samples = 10<br/>value = [2, 8]<br/>class = 1>, fillcolor="#6ab6ec"] ;
385 -> 387 ;
388 [label=<gini = 0.0<br/>samples = 1<br/>value = [1, 0]<br/>class = 0>, fillcolor="#e58139"] ;
387 -> 388 ;
389 [label=<angle_to_goal &le; 0.637<br/>gini = 0.198<br/>samples = 9<br/>value = [1, 8]<br/>class = 1>, fillcolor="#52a9e8"] ;
387 -> 389 ;
390 [label=<gini = 0.0<br/>samples = 1<br/>value = [1, 0]<br/>class = 0>, fillcolor="#e58139"] ;
389 -> 390 ;
391 [label=<gini = 0.0<br/>samples = 8<br/>value = [0, 8]<br/>class = 1>, fillcolor="#399de5"] ;
389 -> 391 ;
392 [label=<duration &le; 0.917<br/>gini = 0.317<br/>samples = 142<br/>value = [28, 114]<br/>class = 1>, fillcolor="#6ab5eb"] ;
384 -> 392 ;
393 [label=<gini = 0.0<br/>samples = 6<br/>value = [6, 0]<br/>class = 0>, fillcolor="#e58139"] ;
392 -> 393 ;
394 [label=<distant_to_goal &le; 6.052<br/>gini = 0.271<br/>samples = 136<br/>value = [22, 114]<br/>class = 1>, fillcolor="#5fb0ea"] ;
392 -> 394 ;
395 [label=<duration &le; 1.111<br/>gini = 0.47<br/>samples = 37<br/>value = [14, 23]<br/>class = 1>, fillcolor="#b2d9f5"] ;
394 -> 395 ;
396 [label=<distant_to_goal &le; 5.915<br/>gini = 0.293<br/>samples = 28<br/>value = [5, 23]<br/>class = 1>, fillcolor="#64b2eb"] ;
395 -> 396 ;
397 [label=<gini = 0.204<br/>samples = 26<br/>value = [3, 23]<br/>class = 1>, fillcolor="#53aae8"] ;
396 -> 397 ;
398 [label=<gini = 0.0<br/>samples = 2<br/>value = [2, 0]<br/>class = 0>, fillcolor="#e58139"] ;
396 -> 398 ;
399 [label=<gini = 0.0<br/>samples = 9<br/>value = [9, 0]<br/>class = 0>, fillcolor="#e58139"] ;
395 -> 399 ;
400 [label=<within_1 &le; 1.5<br/>gini = 0.149<br/>samples = 99<br/>value = [8, 91]<br/>class = 1>, fillcolor="#4aa6e7"] ;
394 -> 400 ;
401 [label=<within_10 &le; 2.5<br/>gini = 0.116<br/>samples = 97<br/>value = [6, 91]<br/>class = 1>, fillcolor="#46a3e7"] ;
400 -> 401 ;
402 [label=<gini = 0.0<br/>samples = 1<br/>value = [1, 0]<br/>class = 0>, fillcolor="#e58139"] ;
401 -> 402 ;
403 [label=<gini = 0.099<br/>samples = 96<br/>value = [5, 91]<br/>class = 1>, fillcolor="#44a2e6"] ;
401 -> 403 ;
404 [label=<gini = 0.0<br/>samples = 2<br/>value = [2, 0]<br/>class = 0>, fillcolor="#e58139"] ;
400 -> 404 ;
405 [label=<gini = 0.0<br/>samples = 8<br/>value = [8, 0]<br/>class = 0>, fillcolor="#e58139"] ;
309 -> 405 ;
406 [label=<within_10 &le; 12.5<br/>gini = 0.344<br/>samples = 2729<br/>value = [603, 2126]<br/>class = 1>, fillcolor="#71b9ec"] ;
308 -> 406 ;
407 [label=<play_pattern &le; 0.5<br/>gini = 0.335<br/>samples = 2694<br/>value = [574, 2120]<br/>class = 1>, fillcolor="#6fb8ec"] ;
406 -> 407 ;
408 [label=<distant_to_goal &le; 8.468<br/>gini = 0.452<br/>samples = 392<br/>value = [135, 257]<br/>class = 1>, fillcolor="#a1d0f3"] ;
407 -> 408 ;
409 [label=<distant_to_goal &le; 7.267<br/>gini = 0.411<br/>samples = 349<br/>value = [101, 248]<br/>class = 1>, fillcolor="#8ac5f0"] ;
408 -> 409 ;
410 [label=<angle_to_goal &le; 0.184<br/>gini = 0.498<br/>samples = 98<br/>value = [46, 52]<br/>class = 1>, fillcolor="#e8f4fc"] ;
409 -> 410 ;
411 [label=<gini = 0.0<br/>samples = 10<br/>value = [10, 0]<br/>class = 0>, fillcolor="#e58139"] ;
410 -> 411 ;
412 [label=<angle_to_goal &le; 0.919<br/>gini = 0.483<br/>samples = 88<br/>value = [36, 52]<br/>class = 1>, fillcolor="#c2e1f7"] ;
410 -> 412 ;
413 [label=<within_10 &le; 11.5<br/>gini = 0.46<br/>samples = 81<br/>value = [29, 52]<br/>class = 1>, fillcolor="#a7d4f4"] ;
412 -> 413 ;
414 [label=<distant_to_goal &le; 6.522<br/>gini = 0.432<br/>samples = 76<br/>value = [24, 52]<br/>class = 1>, fillcolor="#94caf1"] ;
413 -> 414 ;
415 [label=<gini = 0.0<br/>samples = 4<br/>value = [4, 0]<br/>class = 0>, fillcolor="#e58139"] ;
414 -> 415 ;
416 [label=<gini = 0.401<br/>samples = 72<br/>value = [20, 52]<br/>class = 1>, fillcolor="#85c3ef"] ;
414 -> 416 ;
417 [label=<gini = 0.0<br/>samples = 5<br/>value = [5, 0]<br/>class = 0>, fillcolor="#e58139"] ;
413 -> 417 ;
418 [label=<gini = 0.0<br/>samples = 7<br/>value = [7, 0]<br/>class = 0>, fillcolor="#e58139"] ;
412 -> 418 ;
419 [label=<duration &le; 0.821<br/>gini = 0.342<br/>samples = 251<br/>value = [55, 196]<br/>class = 1>, fillcolor="#71b8ec"] ;
409 -> 419 ;
420 [label=<within_1 &le; 1.5<br/>gini = 0.283<br/>samples = 205<br/>value = [35, 170]<br/>class = 1>, fillcolor="#62b1ea"] ;
419 -> 420 ;
421 [label=<distant_to_goal &le; 7.645<br/>gini = 0.267<br/>samples = 202<br/>value = [32, 170]<br/>class = 1>, fillcolor="#5eafea"] ;
420 -> 421 ;
422 [label=<within_10 &le; 7.5<br/>gini = 0.12<br/>samples = 94<br/>value = [6, 88]<br/>class = 1>, fillcolor="#46a4e7"] ;
421 -> 422 ;
423 [label=<gini = 0.0<br/>samples = 48<br/>value = [0, 48]<br/>class = 1>, fillcolor="#399de5"] ;
422 -> 423 ;
424 [label=<gini = 0.227<br/>samples = 46<br/>value = [6, 40]<br/>class = 1>, fillcolor="#57ace9"] ;
422 -> 424 ;
425 [label=<duration &le; 0.537<br/>gini = 0.366<br/>samples = 108<br/>value = [26, 82]<br/>class = 1>, fillcolor="#78bced"] ;
421 -> 425 ;
426 [label=<gini = 0.355<br/>samples = 13<br/>value = [10, 3]<br/>class = 0>, fillcolor="#eda774"] ;
425 -> 426 ;
427 [label=<gini = 0.28<br/>samples = 95<br/>value = [16, 79]<br/>class = 1>, fillcolor="#61b1ea"] ;
425 -> 427 ;
428 [label=<gini = 0.0<br/>samples = 3<br/>value = [3, 0]<br/>class = 0>, fillcolor="#e58139"] ;
420 -> 428 ;
429 [label=<within_5 &le; 3.5<br/>gini = 0.491<br/>samples = 46<br/>value = [20, 26]<br/>class = 1>, fillcolor="#d1e8f9"] ;
419 -> 429 ;
430 [label=<within_5 &le; 1.5<br/>gini = 0.334<br/>samples = 33<br/>value = [7, 26]<br/>class = 1>, fillcolor="#6eb7ec"] ;
429 -> 430 ;
431 [label=<gini = 0.0<br/>samples = 3<br/>value = [3, 0]<br/>class = 0>, fillcolor="#e58139"] ;
430 -> 431 ;
432 [label=<distant_to_goal &le; 7.475<br/>gini = 0.231<br/>samples = 30<br/>value = [4, 26]<br/>class = 1>, fillcolor="#57ace9"] ;
430 -> 432 ;
433 [label=<gini = 0.0<br/>samples = 2<br/>value = [2, 0]<br/>class = 0>, fillcolor="#e58139"] ;
432 -> 433 ;
434 [label=<gini = 0.133<br/>samples = 28<br/>value = [2, 26]<br/>class = 1>, fillcolor="#48a5e7"] ;
432 -> 434 ;
435 [label=<gini = 0.0<br/>samples = 13<br/>value = [13, 0]<br/>class = 0>, fillcolor="#e58139"] ;
429 -> 435 ;
436 [label=<angle_to_goal &le; 0.169<br/>gini = 0.331<br/>samples = 43<br/>value = [34, 9]<br/>class = 0>, fillcolor="#eca26d"] ;
408 -> 436 ;
437 [label=<angle_to_goal &le; 0.101<br/>gini = 0.459<br/>samples = 14<br/>value = [5, 9]<br/>class = 1>, fillcolor="#a7d3f3"] ;
436 -> 437 ;
438 [label=<gini = 0.0<br/>samples = 4<br/>value = [4, 0]<br/>class = 0>, fillcolor="#e58139"] ;
437 -> 438 ;
439 [label=<duration &le; 0.667<br/>gini = 0.18<br/>samples = 10<br/>value = [1, 9]<br/>class = 1>, fillcolor="#4fa8e8"] ;
437 -> 439 ;
440 [label=<gini = 0.0<br/>samples = 1<br/>value = [1, 0]<br/>class = 0>, fillcolor="#e58139"] ;
439 -> 440 ;
441 [label=<gini = 0.0<br/>samples = 9<br/>value = [0, 9]<br/>class = 1>, fillcolor="#399de5"] ;
439 -> 441 ;
442 [label=<gini = 0.0<br/>samples = 29<br/>value = [29, 0]<br/>class = 0>, fillcolor="#e58139"] ;
436 -> 442 ;
443 [label=<within_1 &le; 0.5<br/>gini = 0.309<br/>samples = 2302<br/>value = [439, 1863]<br/>class = 1>, fillcolor="#68b4eb"] ;
407 -> 443 ;
444 [label=<duration &le; 1.297<br/>gini = 0.288<br/>samples = 1931<br/>value = [337, 1594]<br/>class = 1>, fillcolor="#63b2ea"] ;
443 -> 444 ;
445 [label=<duration &le; 0.551<br/>gini = 0.276<br/>samples = 1806<br/>value = [298, 1508]<br/>class = 1>, fillcolor="#60b0ea"] ;
444 -> 445 ;
446 [label=<duration &le; 0.543<br/>gini = 0.354<br/>samples = 501<br/>value = [115, 386]<br/>class = 1>, fillcolor="#74baed"] ;
445 -> 446 ;
447 [label=<play_pattern &le; 6.5<br/>gini = 0.345<br/>samples = 496<br/>value = [110, 386]<br/>class = 1>, fillcolor="#71b9ec"] ;
446 -> 447 ;
448 [label=<duration &le; 0.44<br/>gini = 0.433<br/>samples = 196<br/>value = [62, 134]<br/>class = 1>, fillcolor="#95caf1"] ;
447 -> 448 ;
449 [label=<gini = 0.462<br/>samples = 58<br/>value = [37, 21]<br/>class = 0>, fillcolor="#f4c9a9"] ;
448 -> 449 ;
450 [label=<gini = 0.297<br/>samples = 138<br/>value = [25, 113]<br/>class = 1>, fillcolor="#65b3eb"] ;
448 -> 450 ;
451 [label=<angle_to_goal &le; 0.989<br/>gini = 0.269<br/>samples = 300<br/>value = [48, 252]<br/>class = 1>, fillcolor="#5fb0ea"] ;
447 -> 451 ;
452 [label=<gini = 0.209<br/>samples = 270<br/>value = [32, 238]<br/>class = 1>, fillcolor="#54aae8"] ;
451 -> 452 ;
453 [label=<gini = 0.498<br/>samples = 30<br/>value = [16, 14]<br/>class = 0>, fillcolor="#fcefe6"] ;
451 -> 453 ;
454 [label=<gini = 0.0<br/>samples = 5<br/>value = [5, 0]<br/>class = 0>, fillcolor="#e58139"] ;
446 -> 454 ;
455 [label=<angle_to_goal &le; 1.292<br/>gini = 0.241<br/>samples = 1305<br/>value = [183, 1122]<br/>class = 1>, fillcolor="#59ade9"] ;
445 -> 455 ;
456 [label=<duration &le; 0.702<br/>gini = 0.238<br/>samples = 1302<br/>value = [180, 1122]<br/>class = 1>, fillcolor="#59ade9"] ;
455 -> 456 ;
457 [label=<distant_to_goal &le; 6.411<br/>gini = 0.175<br/>samples = 528<br/>value = [51, 477]<br/>class = 1>, fillcolor="#4ea7e8"] ;
456 -> 457 ;
458 [label=<gini = 0.0<br/>samples = 2<br/>value = [2, 0]<br/>class = 0>, fillcolor="#e58139"] ;
457 -> 458 ;
459 [label=<gini = 0.169<br/>samples = 526<br/>value = [49, 477]<br/>class = 1>, fillcolor="#4da7e8"] ;
457 -> 459 ;
460 [label=<within_5 &le; 2.5<br/>gini = 0.278<br/>samples = 774<br/>value = [129, 645]<br/>class = 1>, fillcolor="#61b1ea"] ;
456 -> 460 ;
461 [label=<gini = 0.238<br/>samples = 500<br/>value = [69, 431]<br/>class = 1>, fillcolor="#59ade9"] ;
460 -> 461 ;
462 [label=<gini = 0.342<br/>samples = 274<br/>value = [60, 214]<br/>class = 1>, fillcolor="#71b8ec"] ;
460 -> 462 ;
463 [label=<gini = 0.0<br/>samples = 3<br/>value = [3, 0]<br/>class = 0>, fillcolor="#e58139"] ;
455 -> 463 ;
464 [label=<duration &le; 1.576<br/>gini = 0.429<br/>samples = 125<br/>value = [39, 86]<br/>class = 1>, fillcolor="#93c9f1"] ;
444 -> 464 ;
465 [label=<distant_to_goal &le; 7.603<br/>gini = 0.486<br/>samples = 48<br/>value = [28, 20]<br/>class = 0>, fillcolor="#f8dbc6"] ;
464 -> 465 ;
466 [label=<distant_to_goal &le; 7.042<br/>gini = 0.384<br/>samples = 27<br/>value = [7, 20]<br/>class = 1>, fillcolor="#7ebfee"] ;
465 -> 466 ;
467 [label=<gini = 0.0<br/>samples = 4<br/>value = [4, 0]<br/>class = 0>, fillcolor="#e58139"] ;
466 -> 467 ;
468 [label=<within_10 &le; 2.5<br/>gini = 0.227<br/>samples = 23<br/>value = [3, 20]<br/>class = 1>, fillcolor="#57ace9"] ;
466 -> 468 ;
469 [label=<gini = 0.0<br/>samples = 1<br/>value = [1, 0]<br/>class = 0>, fillcolor="#e58139"] ;
468 -> 469 ;
470 [label=<gini = 0.165<br/>samples = 22<br/>value = [2, 20]<br/>class = 1>, fillcolor="#4da7e8"] ;
468 -> 470 ;
471 [label=<gini = 0.0<br/>samples = 21<br/>value = [21, 0]<br/>class = 0>, fillcolor="#e58139"] ;
465 -> 471 ;
472 [label=<distant_to_goal &le; 6.854<br/>gini = 0.245<br/>samples = 77<br/>value = [11, 66]<br/>class = 1>, fillcolor="#5aade9"] ;
464 -> 472 ;
473 [label=<gini = 0.0<br/>samples = 4<br/>value = [4, 0]<br/>class = 0>, fillcolor="#e58139"] ;
472 -> 473 ;
474 [label=<within_10 &le; 3.5<br/>gini = 0.173<br/>samples = 73<br/>value = [7, 66]<br/>class = 1>, fillcolor="#4ea7e8"] ;
472 -> 474 ;
475 [label=<gini = 0.0<br/>samples = 2<br/>value = [2, 0]<br/>class = 0>, fillcolor="#e58139"] ;
474 -> 475 ;
476 [label=<within_10 &le; 8.5<br/>gini = 0.131<br/>samples = 71<br/>value = [5, 66]<br/>class = 1>, fillcolor="#48a4e7"] ;
474 -> 476 ;
477 [label=<gini = 0.108<br/>samples = 70<br/>value = [4, 66]<br/>class = 1>, fillcolor="#45a3e7"] ;
476 -> 477 ;
478 [label=<gini = 0.0<br/>samples = 1<br/>value = [1, 0]<br/>class = 0>, fillcolor="#e58139"] ;
476 -> 478 ;
479 [label=<distant_to_goal &le; 6.628<br/>gini = 0.399<br/>samples = 371<br/>value = [102, 269]<br/>class = 1>, fillcolor="#84c2ef"] ;
443 -> 479 ;
480 [label=<gini = 0.0<br/>samples = 10<br/>value = [10, 0]<br/>class = 0>, fillcolor="#e58139"] ;
479 -> 480 ;
481 [label=<duration &le; 0.368<br/>gini = 0.38<br/>samples = 361<br/>value = [92, 269]<br/>class = 1>, fillcolor="#7dbfee"] ;
479 -> 481 ;
482 [label=<gini = 0.0<br/>samples = 7<br/>value = [7, 0]<br/>class = 0>, fillcolor="#e58139"] ;
481 -> 482 ;
483 [label=<angle_to_goal &le; 0.016<br/>gini = 0.365<br/>samples = 354<br/>value = [85, 269]<br/>class = 1>, fillcolor="#78bced"] ;
481 -> 483 ;
484 [label=<gini = 0.0<br/>samples = 4<br/>value = [4, 0]<br/>class = 0>, fillcolor="#e58139"] ;
483 -> 484 ;
485 [label=<angle_to_goal &le; 0.052<br/>gini = 0.356<br/>samples = 350<br/>value = [81, 269]<br/>class = 1>, fillcolor="#75bbed"] ;
483 -> 485 ;
486 [label=<within_10 &le; 10.0<br/>gini = 0.067<br/>samples = 58<br/>value = [2, 56]<br/>class = 1>, fillcolor="#40a0e6"] ;
485 -> 486 ;
487 [label=<gini = 0.034<br/>samples = 57<br/>value = [1, 56]<br/>class = 1>, fillcolor="#3d9fe5"] ;
486 -> 487 ;
488 [label=<gini = 0.0<br/>samples = 1<br/>value = [1, 0]<br/>class = 0>, fillcolor="#e58139"] ;
486 -> 488 ;
489 [label=<angle_to_goal &le; 0.266<br/>gini = 0.395<br/>samples = 292<br/>value = [79, 213]<br/>class = 1>, fillcolor="#82c1ef"] ;
485 -> 489 ;
490 [label=<gini = 0.494<br/>samples = 56<br/>value = [25, 31]<br/>class = 1>, fillcolor="#d9ecfa"] ;
489 -> 490 ;
491 [label=<gini = 0.353<br/>samples = 236<br/>value = [54, 182]<br/>class = 1>, fillcolor="#74baed"] ;
489 -> 491 ;
492 [label=<distant_to_goal &le; 6.621<br/>gini = 0.284<br/>samples = 35<br/>value = [29, 6]<br/>class = 0>, fillcolor="#ea9b62"] ;
406 -> 492 ;
493 [label=<within_1 &le; 0.5<br/>gini = 0.245<br/>samples = 7<br/>value = [1, 6]<br/>class = 1>, fillcolor="#5aade9"] ;
492 -> 493 ;
494 [label=<gini = 0.0<br/>samples = 6<br/>value = [0, 6]<br/>class = 1>, fillcolor="#399de5"] ;
493 -> 494 ;
495 [label=<gini = 0.0<br/>samples = 1<br/>value = [1, 0]<br/>class = 0>, fillcolor="#e58139"] ;
493 -> 495 ;
496 [label=<gini = 0.0<br/>samples = 28<br/>value = [28, 0]<br/>class = 0>, fillcolor="#e58139"] ;
492 -> 496 ;
497 [label=<within_10 &le; 12.0<br/>gini = 0.367<br/>samples = 33<br/>value = [25, 8]<br/>class = 0>, fillcolor="#eda978"] ;
307 -> 497 ;
498 [label=<gini = 0.0<br/>samples = 22<br/>value = [22, 0]<br/>class = 0>, fillcolor="#e58139"] ;
497 -> 498 ;
499 [label=<play_pattern &le; 1.0<br/>gini = 0.397<br/>samples = 11<br/>value = [3, 8]<br/>class = 1>, fillcolor="#83c2ef"] ;
497 -> 499 ;
500 [label=<gini = 0.0<br/>samples = 3<br/>value = [3, 0]<br/>class = 0>, fillcolor="#e58139"] ;
499 -> 500 ;
501 [label=<gini = 0.0<br/>samples = 8<br/>value = [0, 8]<br/>class = 1>, fillcolor="#399de5"] ;
499 -> 501 ;
502 [label=<duration &le; 0.48<br/>gini = 0.445<br/>samples = 11808<br/>value = [3937, 7871]<br/>class = 1>, fillcolor="#9ccef2"] ;
238 -> 502 ;
503 [label=<distant_to_goal &le; 12.339<br/>gini = 0.437<br/>samples = 1278<br/>value = [866, 412]<br/>class = 0>, fillcolor="#f1bd97"] ;
502 -> 503 ;
504 [label=<duration &le; 0.392<br/>gini = 0.496<br/>samples = 532<br/>value = [242, 290]<br/>class = 1>, fillcolor="#deeffb"] ;
503 -> 504 ;
505 [label=<play_pattern &le; 6.5<br/>gini = 0.463<br/>samples = 203<br/>value = [129, 74]<br/>class = 0>, fillcolor="#f4c9ab"] ;
504 -> 505 ;
506 [label=<distant_to_goal &le; 9.574<br/>gini = 0.226<br/>samples = 77<br/>value = [67, 10]<br/>class = 0>, fillcolor="#e99457"] ;
505 -> 506 ;
507 [label=<angle_to_goal &le; 0.752<br/>gini = 0.499<br/>samples = 21<br/>value = [11, 10]<br/>class = 0>, fillcolor="#fdf4ed"] ;
506 -> 507 ;
508 [label=<duration &le; 0.355<br/>gini = 0.408<br/>samples = 14<br/>value = [4, 10]<br/>class = 1>, fillcolor="#88c4ef"] ;
507 -> 508 ;
509 [label=<gini = 0.0<br/>samples = 10<br/>value = [0, 10]<br/>class = 1>, fillcolor="#399de5"] ;
508 -> 509 ;
510 [label=<gini = 0.0<br/>samples = 4<br/>value = [4, 0]<br/>class = 0>, fillcolor="#e58139"] ;
508 -> 510 ;
511 [label=<gini = 0.0<br/>samples = 7<br/>value = [7, 0]<br/>class = 0>, fillcolor="#e58139"] ;
507 -> 511 ;
512 [label=<gini = 0.0<br/>samples = 56<br/>value = [56, 0]<br/>class = 0>, fillcolor="#e58139"] ;
506 -> 512 ;
513 [label=<duration &le; 0.306<br/>gini = 0.5<br/>samples = 126<br/>value = [62, 64]<br/>class = 1>, fillcolor="#f9fcfe"] ;
505 -> 513 ;
514 [label=<gini = 0.0<br/>samples = 14<br/>value = [14, 0]<br/>class = 0>, fillcolor="#e58139"] ;
513 -> 514 ;
515 [label=<duration &le; 0.308<br/>gini = 0.49<br/>samples = 112<br/>value = [48, 64]<br/>class = 1>, fillcolor="#cee6f8"] ;
513 -> 515 ;
516 [label=<gini = 0.0<br/>samples = 19<br/>value = [0, 19]<br/>class = 1>, fillcolor="#399de5"] ;
515 -> 516 ;
517 [label=<within_10 &le; 4.5<br/>gini = 0.499<br/>samples = 93<br/>value = [48, 45]<br/>class = 0>, fillcolor="#fdf7f3"] ;
515 -> 517 ;
518 [label=<angle_to_goal &le; 0.314<br/>gini = 0.469<br/>samples = 72<br/>value = [27, 45]<br/>class = 1>, fillcolor="#b0d8f5"] ;
517 -> 518 ;
519 [label=<gini = 0.0<br/>samples = 5<br/>value = [5, 0]<br/>class = 0>, fillcolor="#e58139"] ;
518 -> 519 ;
520 [label=<angle_to_goal &le; 0.321<br/>gini = 0.441<br/>samples = 67<br/>value = [22, 45]<br/>class = 1>, fillcolor="#9acdf2"] ;
518 -> 520 ;
521 [label=<gini = 0.0<br/>samples = 17<br/>value = [0, 17]<br/>class = 1>, fillcolor="#399de5"] ;
520 -> 521 ;
522 [label=<distant_to_goal &le; 10.196<br/>gini = 0.493<br/>samples = 50<br/>value = [22, 28]<br/>class = 1>, fillcolor="#d5eaf9"] ;
520 -> 522 ;
523 [label=<distant_to_goal &le; 9.737<br/>gini = 0.32<br/>samples = 35<br/>value = [7, 28]<br/>class = 1>, fillcolor="#6ab6ec"] ;
522 -> 523 ;
524 [label=<gini = 0.0<br/>samples = 5<br/>value = [5, 0]<br/>class = 0>, fillcolor="#e58139"] ;
523 -> 524 ;
525 [label=<gini = 0.124<br/>samples = 30<br/>value = [2, 28]<br/>class = 1>, fillcolor="#47a4e7"] ;
523 -> 525 ;
526 [label=<gini = 0.0<br/>samples = 15<br/>value = [15, 0]<br/>class = 0>, fillcolor="#e58139"] ;
522 -> 526 ;
527 [label=<gini = 0.0<br/>samples = 21<br/>value = [21, 0]<br/>class = 0>, fillcolor="#e58139"] ;
517 -> 527 ;
528 [label=<angle_to_goal &le; 1.194<br/>gini = 0.451<br/>samples = 329<br/>value = [113, 216]<br/>class = 1>, fillcolor="#a1d0f3"] ;
504 -> 528 ;
529 [label=<within_1 &le; 0.5<br/>gini = 0.411<br/>samples = 304<br/>value = [88, 216]<br/>class = 1>, fillcolor="#8ac5f0"] ;
528 -> 529 ;
530 [label=<players_between_goal &le; 0.5<br/>gini = 0.385<br/>samples = 292<br/>value = [76, 216]<br/>class = 1>, fillcolor="#7fbfee"] ;
529 -> 530 ;
531 [label=<gini = 0.0<br/>samples = 51<br/>value = [0, 51]<br/>class = 1>, fillcolor="#399de5"] ;
530 -> 531 ;
532 [label=<distant_to_goal &le; 9.365<br/>gini = 0.432<br/>samples = 241<br/>value = [76, 165]<br/>class = 1>, fillcolor="#94caf1"] ;
530 -> 532 ;
533 [label=<gini = 0.0<br/>samples = 9<br/>value = [9, 0]<br/>class = 0>, fillcolor="#e58139"] ;
532 -> 533 ;
534 [label=<within_10 &le; 4.5<br/>gini = 0.411<br/>samples = 232<br/>value = [67, 165]<br/>class = 1>, fillcolor="#89c5f0"] ;
532 -> 534 ;
535 [label=<play_pattern &le; 6.5<br/>gini = 0.495<br/>samples = 89<br/>value = [40, 49]<br/>class = 1>, fillcolor="#dbedfa"] ;
534 -> 535 ;
536 [label=<gini = 0.0<br/>samples = 17<br/>value = [17, 0]<br/>class = 0>, fillcolor="#e58139"] ;
535 -> 536 ;
537 [label=<distant_to_goal &le; 12.0<br/>gini = 0.435<br/>samples = 72<br/>value = [23, 49]<br/>class = 1>, fillcolor="#96cbf1"] ;
535 -> 537 ;
538 [label=<duration &le; 0.47<br/>gini = 0.393<br/>samples = 67<br/>value = [18, 49]<br/>class = 1>, fillcolor="#82c1ef"] ;
537 -> 538 ;
539 [label=<gini = 0.346<br/>samples = 63<br/>value = [14, 49]<br/>class = 1>, fillcolor="#72b9ec"] ;
538 -> 539 ;
540 [label=<gini = 0.0<br/>samples = 4<br/>value = [4, 0]<br/>class = 0>, fillcolor="#e58139"] ;
538 -> 540 ;
541 [label=<gini = 0.0<br/>samples = 5<br/>value = [5, 0]<br/>class = 0>, fillcolor="#e58139"] ;
537 -> 541 ;
542 [label=<angle_to_goal &le; 1.088<br/>gini = 0.306<br/>samples = 143<br/>value = [27, 116]<br/>class = 1>, fillcolor="#67b4eb"] ;
534 -> 542 ;
543 [label=<distant_to_goal &le; 10.424<br/>gini = 0.276<br/>samples = 139<br/>value = [23, 116]<br/>class = 1>, fillcolor="#60b0ea"] ;
542 -> 543 ;
544 [label=<duration &le; 0.404<br/>gini = 0.444<br/>samples = 27<br/>value = [9, 18]<br/>class = 1>, fillcolor="#9ccef2"] ;
543 -> 544 ;
545 [label=<gini = 0.0<br/>samples = 18<br/>value = [0, 18]<br/>class = 1>, fillcolor="#399de5"] ;
544 -> 545 ;
546 [label=<gini = 0.0<br/>samples = 9<br/>value = [9, 0]<br/>class = 0>, fillcolor="#e58139"] ;
544 -> 546 ;
547 [label=<duration &le; 0.477<br/>gini = 0.219<br/>samples = 112<br/>value = [14, 98]<br/>class = 1>, fillcolor="#55abe9"] ;
543 -> 547 ;
548 [label=<gini = 0.207<br/>samples = 111<br/>value = [13, 98]<br/>class = 1>, fillcolor="#53aae8"] ;
547 -> 548 ;
549 [label=<gini = 0.0<br/>samples = 1<br/>value = [1, 0]<br/>class = 0>, fillcolor="#e58139"] ;
547 -> 549 ;
550 [label=<gini = 0.0<br/>samples = 4<br/>value = [4, 0]<br/>class = 0>, fillcolor="#e58139"] ;
542 -> 550 ;
551 [label=<gini = 0.0<br/>samples = 12<br/>value = [12, 0]<br/>class = 0>, fillcolor="#e58139"] ;
529 -> 551 ;
552 [label=<gini = 0.0<br/>samples = 25<br/>value = [25, 0]<br/>class = 0>, fillcolor="#e58139"] ;
528 -> 552 ;
553 [label=<distant_to_goal &le; 14.551<br/>gini = 0.274<br/>samples = 746<br/>value = [624, 122]<br/>class = 0>, fillcolor="#ea9a60"] ;
503 -> 553 ;
554 [label=<duration &le; 0.383<br/>gini = 0.412<br/>samples = 369<br/>value = [262, 107]<br/>class = 0>, fillcolor="#f0b48a"] ;
553 -> 554 ;
555 [label=<within_10 &le; 6.5<br/>gini = 0.228<br/>samples = 168<br/>value = [146, 22]<br/>class = 0>, fillcolor="#e99457"] ;
554 -> 555 ;
556 [label=<gini = 0.0<br/>samples = 132<br/>value = [132, 0]<br/>class = 0>, fillcolor="#e58139"] ;
555 -> 556 ;
557 [label=<play_pattern &le; 7.0<br/>gini = 0.475<br/>samples = 36<br/>value = [14, 22]<br/>class = 1>, fillcolor="#b7dbf6"] ;
555 -> 557 ;
558 [label=<gini = 0.0<br/>samples = 9<br/>value = [9, 0]<br/>class = 0>, fillcolor="#e58139"] ;
557 -> 558 ;
559 [label=<duration &le; 0.364<br/>gini = 0.302<br/>samples = 27<br/>value = [5, 22]<br/>class = 1>, fillcolor="#66b3eb"] ;
557 -> 559 ;
560 [label=<angle_to_goal &le; 0.756<br/>gini = 0.211<br/>samples = 25<br/>value = [3, 22]<br/>class = 1>, fillcolor="#54aae9"] ;
559 -> 560 ;
561 [label=<distant_to_goal &le; 12.56<br/>gini = 0.083<br/>samples = 23<br/>value = [1, 22]<br/>class = 1>, fillcolor="#42a1e6"] ;
560 -> 561 ;
562 [label=<gini = 0.0<br/>samples = 1<br/>value = [1, 0]<br/>class = 0>, fillcolor="#e58139"] ;
561 -> 562 ;
563 [label=<gini = 0.0<br/>samples = 22<br/>value = [0, 22]<br/>class = 1>, fillcolor="#399de5"] ;
561 -> 563 ;
564 [label=<gini = 0.0<br/>samples = 2<br/>value = [2, 0]<br/>class = 0>, fillcolor="#e58139"] ;
560 -> 564 ;
565 [label=<gini = 0.0<br/>samples = 2<br/>value = [2, 0]<br/>class = 0>, fillcolor="#e58139"] ;
559 -> 565 ;
566 [label=<angle_to_goal &le; 1.042<br/>gini = 0.488<br/>samples = 201<br/>value = [116, 85]<br/>class = 0>, fillcolor="#f8ddca"] ;
554 -> 566 ;
567 [label=<play_pattern &le; 5.5<br/>gini = 0.5<br/>samples = 163<br/>value = [82, 81]<br/>class = 0>, fillcolor="#fffdfd"] ;
566 -> 567 ;
568 [label=<play_pattern &le; 2.5<br/>gini = 0.449<br/>samples = 88<br/>value = [30, 58]<br/>class = 1>, fillcolor="#9fd0f2"] ;
567 -> 568 ;
569 [label=<angle_to_goal &le; 0.086<br/>gini = 0.472<br/>samples = 42<br/>value = [26, 16]<br/>class = 0>, fillcolor="#f5cfb3"] ;
568 -> 569 ;
570 [label=<gini = 0.0<br/>samples = 10<br/>value = [0, 10]<br/>class = 1>, fillcolor="#399de5"] ;
569 -> 570 ;
571 [label=<distant_to_goal &le; 14.249<br/>gini = 0.305<br/>samples = 32<br/>value = [26, 6]<br/>class = 0>, fillcolor="#eb9e67"] ;
569 -> 571 ;
572 [label=<gini = 0.0<br/>samples = 25<br/>value = [25, 0]<br/>class = 0>, fillcolor="#e58139"] ;
571 -> 572 ;
573 [label=<distant_to_goal &le; 14.399<br/>gini = 0.245<br/>samples = 7<br/>value = [1, 6]<br/>class = 1>, fillcolor="#5aade9"] ;
571 -> 573 ;
574 [label=<gini = 0.0<br/>samples = 6<br/>value = [0, 6]<br/>class = 1>, fillcolor="#399de5"] ;
573 -> 574 ;
575 [label=<gini = 0.0<br/>samples = 1<br/>value = [1, 0]<br/>class = 0>, fillcolor="#e58139"] ;
573 -> 575 ;
576 [label=<within_10 &le; 1.5<br/>gini = 0.159<br/>samples = 46<br/>value = [4, 42]<br/>class = 1>, fillcolor="#4ca6e7"] ;
568 -> 576 ;
577 [label=<gini = 0.0<br/>samples = 1<br/>value = [1, 0]<br/>class = 0>, fillcolor="#e58139"] ;
576 -> 577 ;
578 [label=<within_1 &le; 0.5<br/>gini = 0.124<br/>samples = 45<br/>value = [3, 42]<br/>class = 1>, fillcolor="#47a4e7"] ;
576 -> 578 ;
579 [label=<duration &le; 0.464<br/>gini = 0.087<br/>samples = 44<br/>value = [2, 42]<br/>class = 1>, fillcolor="#42a2e6"] ;
578 -> 579 ;
580 [label=<within_10 &le; 3.5<br/>gini = 0.045<br/>samples = 43<br/>value = [1, 42]<br/>class = 1>, fillcolor="#3e9fe6"] ;
579 -> 580 ;
581 [label=<gini = 0.278<br/>samples = 6<br/>value = [1, 5]<br/>class = 1>, fillcolor="#61b1ea"] ;
580 -> 581 ;
582 [label=<gini = 0.0<br/>samples = 37<br/>value = [0, 37]<br/>class = 1>, fillcolor="#399de5"] ;
580 -> 582 ;
583 [label=<gini = 0.0<br/>samples = 1<br/>value = [1, 0]<br/>class = 0>, fillcolor="#e58139"] ;
579 -> 583 ;
584 [label=<gini = 0.0<br/>samples = 1<br/>value = [1, 0]<br/>class = 0>, fillcolor="#e58139"] ;
578 -> 584 ;
585 [label=<distant_to_goal &le; 14.531<br/>gini = 0.425<br/>samples = 75<br/>value = [52, 23]<br/>class = 0>, fillcolor="#f0b991"] ;
567 -> 585 ;
586 [label=<within_10 &le; 3.5<br/>gini = 0.334<br/>samples = 66<br/>value = [52, 14]<br/>class = 0>, fillcolor="#eca36e"] ;
585 -> 586 ;
587 [label=<distant_to_goal &le; 13.595<br/>gini = 0.499<br/>samples = 27<br/>value = [13, 14]<br/>class = 1>, fillcolor="#f1f8fd"] ;
586 -> 587 ;
588 [label=<gini = 0.0<br/>samples = 9<br/>value = [9, 0]<br/>class = 0>, fillcolor="#e58139"] ;
587 -> 588 ;
589 [label=<duration &le; 0.438<br/>gini = 0.346<br/>samples = 18<br/>value = [4, 14]<br/>class = 1>, fillcolor="#72b9ec"] ;
587 -> 589 ;
590 [label=<within_1 &le; 0.5<br/>gini = 0.124<br/>samples = 15<br/>value = [1, 14]<br/>class = 1>, fillcolor="#47a4e7"] ;
589 -> 590 ;
591 [label=<gini = 0.0<br/>samples = 14<br/>value = [0, 14]<br/>class = 1>, fillcolor="#399de5"] ;
590 -> 591 ;
592 [label=<gini = 0.0<br/>samples = 1<br/>value = [1, 0]<br/>class = 0>, fillcolor="#e58139"] ;
590 -> 592 ;
593 [label=<gini = 0.0<br/>samples = 3<br/>value = [3, 0]<br/>class = 0>, fillcolor="#e58139"] ;
589 -> 593 ;
594 [label=<gini = 0.0<br/>samples = 39<br/>value = [39, 0]<br/>class = 0>, fillcolor="#e58139"] ;
586 -> 594 ;
595 [label=<gini = 0.0<br/>samples = 9<br/>value = [0, 9]<br/>class = 1>, fillcolor="#399de5"] ;
585 -> 595 ;
596 [label=<within_5 &le; 0.5<br/>gini = 0.188<br/>samples = 38<br/>value = [34, 4]<br/>class = 0>, fillcolor="#e89050"] ;
566 -> 596 ;
597 [label=<angle_to_goal &le; 1.173<br/>gini = 0.444<br/>samples = 6<br/>value = [2, 4]<br/>class = 1>, fillcolor="#9ccef2"] ;
596 -> 597 ;
598 [label=<gini = 0.0<br/>samples = 2<br/>value = [2, 0]<br/>class = 0>, fillcolor="#e58139"] ;
597 -> 598 ;
599 [label=<gini = 0.0<br/>samples = 4<br/>value = [0, 4]<br/>class = 1>, fillcolor="#399de5"] ;
597 -> 599 ;
600 [label=<gini = 0.0<br/>samples = 32<br/>value = [32, 0]<br/>class = 0>, fillcolor="#e58139"] ;
596 -> 600 ;
601 [label=<distant_to_goal &le; 18.195<br/>gini = 0.076<br/>samples = 377<br/>value = [362, 15]<br/>class = 0>, fillcolor="#e68641"] ;
553 -> 601 ;
602 [label=<within_5 &le; 2.5<br/>gini = 0.037<br/>samples = 319<br/>value = [313, 6]<br/>class = 0>, fillcolor="#e5833d"] ;
601 -> 602 ;
603 [label=<gini = 0.0<br/>samples = 271<br/>value = [271, 0]<br/>class = 0>, fillcolor="#e58139"] ;
602 -> 603 ;
604 [label=<distant_to_goal &le; 16.445<br/>gini = 0.219<br/>samples = 48<br/>value = [42, 6]<br/>class = 0>, fillcolor="#e99355"] ;
602 -> 604 ;
605 [label=<gini = 0.0<br/>samples = 26<br/>value = [26, 0]<br/>class = 0>, fillcolor="#e58139"] ;
604 -> 605 ;
606 [label=<distant_to_goal &le; 16.52<br/>gini = 0.397<br/>samples = 22<br/>value = [16, 6]<br/>class = 0>, fillcolor="#efb083"] ;
604 -> 606 ;
607 [label=<gini = 0.0<br/>samples = 6<br/>value = [0, 6]<br/>class = 1>, fillcolor="#399de5"] ;
606 -> 607 ;
608 [label=<gini = 0.0<br/>samples = 16<br/>value = [16, 0]<br/>class = 0>, fillcolor="#e58139"] ;
606 -> 608 ;
609 [label=<distant_to_goal &le; 18.26<br/>gini = 0.262<br/>samples = 58<br/>value = [49, 9]<br/>class = 0>, fillcolor="#ea985d"] ;
601 -> 609 ;
610 [label=<gini = 0.0<br/>samples = 9<br/>value = [0, 9]<br/>class = 1>, fillcolor="#399de5"] ;
609 -> 610 ;
611 [label=<gini = 0.0<br/>samples = 49<br/>value = [49, 0]<br/>class = 0>, fillcolor="#e58139"] ;
609 -> 611 ;
612 [label=<within_5 &le; 5.5<br/>gini = 0.413<br/>samples = 10530<br/>value = [3071, 7459]<br/>class = 1>, fillcolor="#8bc5f0"] ;
502 -> 612 ;
613 [label=<angle_to_goal &le; 0.968<br/>gini = 0.409<br/>samples = 10434<br/>value = [2997, 7437]<br/>class = 1>, fillcolor="#89c4ef"] ;
612 -> 613 ;
614 [label=<within_1 &le; 0.5<br/>gini = 0.391<br/>samples = 8734<br/>value = [2332, 6402]<br/>class = 1>, fillcolor="#81c1ee"] ;
613 -> 614 ;
615 [label=<distant_to_goal &le; 16.056<br/>gini = 0.378<br/>samples = 7890<br/>value = [1998, 5892]<br/>class = 1>, fillcolor="#7cbeee"] ;
614 -> 615 ;
616 [label=<duration &le; 1.239<br/>gini = 0.349<br/>samples = 5635<br/>value = [1270, 4365]<br/>class = 1>, fillcolor="#73baed"] ;
615 -> 616 ;
617 [label=<play_pattern &le; 0.5<br/>gini = 0.323<br/>samples = 4824<br/>value = [975, 3849]<br/>class = 1>, fillcolor="#6bb6ec"] ;
616 -> 617 ;
618 [label=<angle_to_goal &le; 0.937<br/>gini = 0.453<br/>samples = 242<br/>value = [84, 158]<br/>class = 1>, fillcolor="#a2d1f3"] ;
617 -> 618 ;
619 [label=<duration &le; 1.032<br/>gini = 0.483<br/>samples = 204<br/>value = [83, 121]<br/>class = 1>, fillcolor="#c1e0f7"] ;
618 -> 619 ;
620 [label=<distant_to_goal &le; 10.47<br/>gini = 0.455<br/>samples = 186<br/>value = [65, 121]<br/>class = 1>, fillcolor="#a3d2f3"] ;
619 -> 620 ;
621 [label=<distant_to_goal &le; 9.179<br/>gini = 0.464<br/>samples = 41<br/>value = [26, 15]<br/>class = 0>, fillcolor="#f4caab"] ;
620 -> 621 ;
622 [label=<gini = 0.332<br/>samples = 19<br/>value = [4, 15]<br/>class = 1>, fillcolor="#6eb7ec"] ;
621 -> 622 ;
623 [label=<gini = 0.0<br/>samples = 22<br/>value = [22, 0]<br/>class = 0>, fillcolor="#e58139"] ;
621 -> 623 ;
624 [label=<within_5 &le; 3.5<br/>gini = 0.393<br/>samples = 145<br/>value = [39, 106]<br/>class = 1>, fillcolor="#82c1ef"] ;
620 -> 624 ;
625 [label=<gini = 0.469<br/>samples = 96<br/>value = [36, 60]<br/>class = 1>, fillcolor="#b0d8f5"] ;
624 -> 625 ;
626 [label=<gini = 0.115<br/>samples = 49<br/>value = [3, 46]<br/>class = 1>, fillcolor="#46a3e7"] ;
624 -> 626 ;
627 [label=<gini = 0.0<br/>samples = 18<br/>value = [18, 0]<br/>class = 0>, fillcolor="#e58139"] ;
619 -> 627 ;
628 [label=<duration &le; 0.643<br/>gini = 0.051<br/>samples = 38<br/>value = [1, 37]<br/>class = 1>, fillcolor="#3ea0e6"] ;
618 -> 628 ;
629 [label=<gini = 0.0<br/>samples = 1<br/>value = [1, 0]<br/>class = 0>, fillcolor="#e58139"] ;
628 -> 629 ;
630 [label=<gini = 0.0<br/>samples = 37<br/>value = [0, 37]<br/>class = 1>, fillcolor="#399de5"] ;
628 -> 630 ;
631 [label=<duration &le; 0.643<br/>gini = 0.313<br/>samples = 4582<br/>value = [891, 3691]<br/>class = 1>, fillcolor="#69b5eb"] ;
617 -> 631 ;
632 [label=<distant_to_goal &le; 14.782<br/>gini = 0.383<br/>samples = 1013<br/>value = [262, 751]<br/>class = 1>, fillcolor="#7ebfee"] ;
631 -> 632 ;
633 [label=<within_5 &le; 4.5<br/>gini = 0.347<br/>samples = 890<br/>value = [199, 691]<br/>class = 1>, fillcolor="#72b9ec"] ;
632 -> 633 ;
634 [label=<angle_to_goal &le; 0.482<br/>gini = 0.339<br/>samples = 882<br/>value = [191, 691]<br/>class = 1>, fillcolor="#70b8ec"] ;
633 -> 634 ;
635 [label=<gini = 0.278<br/>samples = 575<br/>value = [96, 479]<br/>class = 1>, fillcolor="#61b1ea"] ;
634 -> 635 ;
636 [label=<gini = 0.427<br/>samples = 307<br/>value = [95, 212]<br/>class = 1>, fillcolor="#92c9f1"] ;
634 -> 636 ;
637 [label=<gini = 0.0<br/>samples = 8<br/>value = [8, 0]<br/>class = 0>, fillcolor="#e58139"] ;
633 -> 637 ;
638 [label=<play_pattern &le; 6.5<br/>gini = 0.5<br/>samples = 123<br/>value = [63, 60]<br/>class = 0>, fillcolor="#fef9f6"] ;
632 -> 638 ;
639 [label=<duration &le; 0.603<br/>gini = 0.45<br/>samples = 82<br/>value = [28, 54]<br/>class = 1>, fillcolor="#a0d0f2"] ;
638 -> 639 ;
640 [label=<gini = 0.371<br/>samples = 69<br/>value = [17, 52]<br/>class = 1>, fillcolor="#7abdee"] ;
639 -> 640 ;
641 [label=<gini = 0.26<br/>samples = 13<br/>value = [11, 2]<br/>class = 0>, fillcolor="#ea985d"] ;
639 -> 641 ;
642 [label=<duration &le; 0.594<br/>gini = 0.25<br/>samples = 41<br/>value = [35, 6]<br/>class = 0>, fillcolor="#e9975b"] ;
638 -> 642 ;
643 [label=<gini = 0.0<br/>samples = 27<br/>value = [27, 0]<br/>class = 0>, fillcolor="#e58139"] ;
642 -> 643 ;
644 [label=<gini = 0.49<br/>samples = 14<br/>value = [8, 6]<br/>class = 0>, fillcolor="#f8e0ce"] ;
642 -> 644 ;
645 [label=<players_between_goal &le; 0.5<br/>gini = 0.29<br/>samples = 3569<br/>value = [629, 2940]<br/>class = 1>, fillcolor="#63b2eb"] ;
631 -> 645 ;
646 [label=<duration &le; 0.675<br/>gini = 0.128<br/>samples = 290<br/>value = [20, 270]<br/>class = 1>, fillcolor="#48a4e7"] ;
645 -> 646 ;
647 [label=<gini = 0.0<br/>samples = 4<br/>value = [4, 0]<br/>class = 0>, fillcolor="#e58139"] ;
646 -> 647 ;
648 [label=<distant_to_goal &le; 9.413<br/>gini = 0.106<br/>samples = 286<br/>value = [16, 270]<br/>class = 1>, fillcolor="#45a3e7"] ;
646 -> 648 ;
649 [label=<gini = 0.0<br/>samples = 2<br/>value = [2, 0]<br/>class = 0>, fillcolor="#e58139"] ;
648 -> 649 ;
650 [label=<gini = 0.094<br/>samples = 284<br/>value = [14, 270]<br/>class = 1>, fillcolor="#43a2e6"] ;
648 -> 650 ;
651 [label=<duration &le; 0.84<br/>gini = 0.302<br/>samples = 3279<br/>value = [609, 2670]<br/>class = 1>, fillcolor="#66b3eb"] ;
645 -> 651 ;
652 [label=<duration &le; 0.714<br/>gini = 0.261<br/>samples = 1678<br/>value = [259, 1419]<br/>class = 1>, fillcolor="#5dafea"] ;
651 -> 652 ;
653 [label=<gini = 0.339<br/>samples = 500<br/>value = [108, 392]<br/>class = 1>, fillcolor="#70b8ec"] ;
652 -> 653 ;
654 [label=<gini = 0.224<br/>samples = 1178<br/>value = [151, 1027]<br/>class = 1>, fillcolor="#56abe9"] ;
652 -> 654 ;
655 [label=<duration &le; 0.842<br/>gini = 0.342<br/>samples = 1601<br/>value = [350, 1251]<br/>class = 1>, fillcolor="#70b8ec"] ;
651 -> 655 ;
656 [label=<gini = 0.0<br/>samples = 6<br/>value = [6, 0]<br/>class = 0>, fillcolor="#e58139"] ;
655 -> 656 ;
657 [label=<gini = 0.338<br/>samples = 1595<br/>value = [344, 1251]<br/>class = 1>, fillcolor="#6fb8ec"] ;
655 -> 657 ;
658 [label=<within_10 &le; 7.5<br/>gini = 0.463<br/>samples = 811<br/>value = [295, 516]<br/>class = 1>, fillcolor="#aad5f4"] ;
616 -> 658 ;
659 [label=<angle_to_goal &le; 0.842<br/>gini = 0.441<br/>samples = 768<br/>value = [252, 516]<br/>class = 1>, fillcolor="#9acdf2"] ;
658 -> 659 ;
660 [label=<within_5 &le; 3.5<br/>gini = 0.427<br/>samples = 746<br/>value = [230, 516]<br/>class = 1>, fillcolor="#91c9f1"] ;
659 -> 660 ;
661 [label=<play_pattern &le; 0.5<br/>gini = 0.412<br/>samples = 727<br/>value = [211, 516]<br/>class = 1>, fillcolor="#8ac5f0"] ;
660 -> 661 ;
662 [label=<within_5 &le; 2.5<br/>gini = 0.33<br/>samples = 24<br/>value = [19, 5]<br/>class = 0>, fillcolor="#eca26d"] ;
661 -> 662 ;
663 [label=<gini = 0.0<br/>samples = 15<br/>value = [15, 0]<br/>class = 0>, fillcolor="#e58139"] ;
662 -> 663 ;
664 [label=<gini = 0.494<br/>samples = 9<br/>value = [4, 5]<br/>class = 1>, fillcolor="#d7ebfa"] ;
662 -> 664 ;
665 [label=<within_10 &le; 1.5<br/>gini = 0.397<br/>samples = 703<br/>value = [192, 511]<br/>class = 1>, fillcolor="#83c2ef"] ;
661 -> 665 ;
666 [label=<gini = 0.0<br/>samples = 8<br/>value = [8, 0]<br/>class = 0>, fillcolor="#e58139"] ;
665 -> 666 ;
667 [label=<gini = 0.389<br/>samples = 695<br/>value = [184, 511]<br/>class = 1>, fillcolor="#80c0ee"] ;
665 -> 667 ;
668 [label=<gini = 0.0<br/>samples = 19<br/>value = [19, 0]<br/>class = 0>, fillcolor="#e58139"] ;
660 -> 668 ;
669 [label=<gini = 0.0<br/>samples = 22<br/>value = [22, 0]<br/>class = 0>, fillcolor="#e58139"] ;
659 -> 669 ;
670 [label=<gini = 0.0<br/>samples = 43<br/>value = [43, 0]<br/>class = 0>, fillcolor="#e58139"] ;
658 -> 670 ;
671 [label=<duration &le; 0.707<br/>gini = 0.437<br/>samples = 2255<br/>value = [728, 1527]<br/>class = 1>, fillcolor="#97ccf1"] ;
615 -> 671 ;
672 [label=<duration &le; 0.508<br/>gini = 0.481<br/>samples = 379<br/>value = [226, 153]<br/>class = 0>, fillcolor="#f7d6bf"] ;
671 -> 672 ;
673 [label=<gini = 0.0<br/>samples = 33<br/>value = [33, 0]<br/>class = 0>, fillcolor="#e58139"] ;
672 -> 673 ;
674 [label=<play_pattern &le; 2.5<br/>gini = 0.493<br/>samples = 346<br/>value = [193, 153]<br/>class = 0>, fillcolor="#fae5d6"] ;
672 -> 674 ;
675 [label=<within_5 &le; 1.5<br/>gini = 0.465<br/>samples = 109<br/>value = [40, 69]<br/>class = 1>, fillcolor="#acd6f4"] ;
674 -> 675 ;
676 [label=<distant_to_goal &le; 16.591<br/>gini = 0.354<br/>samples = 74<br/>value = [17, 57]<br/>class = 1>, fillcolor="#74baed"] ;
675 -> 676 ;
677 [label=<gini = 0.0<br/>samples = 6<br/>value = [6, 0]<br/>class = 0>, fillcolor="#e58139"] ;
676 -> 677 ;
678 [label=<angle_to_goal &le; 0.379<br/>gini = 0.271<br/>samples = 68<br/>value = [11, 57]<br/>class = 1>, fillcolor="#5fb0ea"] ;
676 -> 678 ;
679 [label=<gini = 0.0<br/>samples = 3<br/>value = [3, 0]<br/>class = 0>, fillcolor="#e58139"] ;
678 -> 679 ;
680 [label=<gini = 0.216<br/>samples = 65<br/>value = [8, 57]<br/>class = 1>, fillcolor="#55abe9"] ;
678 -> 680 ;
681 [label=<duration &le; 0.689<br/>gini = 0.451<br/>samples = 35<br/>value = [23, 12]<br/>class = 0>, fillcolor="#f3c3a0"] ;
675 -> 681 ;
682 [label=<play_pattern &le; 0.5<br/>gini = 0.252<br/>samples = 27<br/>value = [23, 4]<br/>class = 0>, fillcolor="#ea975b"] ;
681 -> 682 ;
683 [label=<gini = 0.49<br/>samples = 7<br/>value = [3, 4]<br/>class = 1>, fillcolor="#cee6f8"] ;
682 -> 683 ;
684 [label=<gini = 0.0<br/>samples = 20<br/>value = [20, 0]<br/>class = 0>, fillcolor="#e58139"] ;
682 -> 684 ;
685 [label=<gini = 0.0<br/>samples = 8<br/>value = [0, 8]<br/>class = 1>, fillcolor="#399de5"] ;
681 -> 685 ;
686 [label=<duration &le; 0.509<br/>gini = 0.458<br/>samples = 237<br/>value = [153, 84]<br/>class = 0>, fillcolor="#f3c6a6"] ;
674 -> 686 ;
687 [label=<gini = 0.0<br/>samples = 10<br/>value = [0, 10]<br/>class = 1>, fillcolor="#399de5"] ;
686 -> 687 ;
688 [label=<angle_to_goal &le; 0.8<br/>gini = 0.439<br/>samples = 227<br/>value = [153, 74]<br/>class = 0>, fillcolor="#f2be99"] ;
686 -> 688 ;
689 [label=<within_10 &le; 6.5<br/>gini = 0.363<br/>samples = 164<br/>value = [125, 39]<br/>class = 0>, fillcolor="#eda877"] ;
688 -> 689 ;
690 [label=<gini = 0.26<br/>samples = 130<br/>value = [110, 20]<br/>class = 0>, fillcolor="#ea985d"] ;
689 -> 690 ;
691 [label=<gini = 0.493<br/>samples = 34<br/>value = [15, 19]<br/>class = 1>, fillcolor="#d5eafa"] ;
689 -> 691 ;
692 [label=<angle_to_goal &le; 0.919<br/>gini = 0.494<br/>samples = 63<br/>value = [28, 35]<br/>class = 1>, fillcolor="#d7ebfa"] ;
688 -> 692 ;
693 [label=<gini = 0.42<br/>samples = 50<br/>value = [15, 35]<br/>class = 1>, fillcolor="#8ec7f0"] ;
692 -> 693 ;
694 [label=<gini = 0.0<br/>samples = 13<br/>value = [13, 0]<br/>class = 0>, fillcolor="#e58139"] ;
692 -> 694 ;
695 [label=<angle_to_goal &le; 0.11<br/>gini = 0.392<br/>samples = 1876<br/>value = [502, 1374]<br/>class = 1>, fillcolor="#81c1ee"] ;
671 -> 695 ;
696 [label=<angle_to_goal &le; 0.006<br/>gini = 0.221<br/>samples = 276<br/>value = [35, 241]<br/>class = 1>, fillcolor="#56abe9"] ;
695 -> 696 ;
697 [label=<gini = 0.0<br/>samples = 4<br/>value = [4, 0]<br/>class = 0>, fillcolor="#e58139"] ;
696 -> 697 ;
698 [label=<duration &le; 0.715<br/>gini = 0.202<br/>samples = 272<br/>value = [31, 241]<br/>class = 1>, fillcolor="#52aae8"] ;
696 -> 698 ;
699 [label=<gini = 0.0<br/>samples = 2<br/>value = [2, 0]<br/>class = 0>, fillcolor="#e58139"] ;
698 -> 699 ;
700 [label=<distant_to_goal &le; 16.135<br/>gini = 0.192<br/>samples = 270<br/>value = [29, 241]<br/>class = 1>, fillcolor="#51a9e8"] ;
698 -> 700 ;
701 [label=<gini = 0.0<br/>samples = 2<br/>value = [2, 0]<br/>class = 0>, fillcolor="#e58139"] ;
700 -> 701 ;
702 [label=<within_10 &le; 7.5<br/>gini = 0.181<br/>samples = 268<br/>value = [27, 241]<br/>class = 1>, fillcolor="#4fa8e8"] ;
700 -> 702 ;
703 [label=<gini = 0.156<br/>samples = 258<br/>value = [22, 236]<br/>class = 1>, fillcolor="#4ba6e7"] ;
702 -> 703 ;
704 [label=<gini = 0.5<br/>samples = 10<br/>value = [5, 5]<br/>class = 0>, fillcolor="#ffffff"] ;
702 -> 704 ;
705 [label=<duration &le; 0.843<br/>gini = 0.413<br/>samples = 1600<br/>value = [467, 1133]<br/>class = 1>, fillcolor="#8bc5f0"] ;
695 -> 705 ;
706 [label=<distant_to_goal &le; 17.499<br/>gini = 0.477<br/>samples = 344<br/>value = [135, 209]<br/>class = 1>, fillcolor="#b9dcf6"] ;
705 -> 706 ;
707 [label=<angle_to_goal &le; 0.879<br/>gini = 0.382<br/>samples = 202<br/>value = [52, 150]<br/>class = 1>, fillcolor="#7ebfee"] ;
706 -> 707 ;
708 [label=<angle_to_goal &le; 0.815<br/>gini = 0.359<br/>samples = 196<br/>value = [46, 150]<br/>class = 1>, fillcolor="#76bbed"] ;
707 -> 708 ;
709 [label=<gini = 0.433<br/>samples = 142<br/>value = [45, 97]<br/>class = 1>, fillcolor="#95caf1"] ;
708 -> 709 ;
710 [label=<gini = 0.036<br/>samples = 54<br/>value = [1, 53]<br/>class = 1>, fillcolor="#3d9fe5"] ;
708 -> 710 ;
711 [label=<gini = 0.0<br/>samples = 6<br/>value = [6, 0]<br/>class = 0>, fillcolor="#e58139"] ;
707 -> 711 ;
712 [label=<distant_to_goal &le; 18.04<br/>gini = 0.486<br/>samples = 142<br/>value = [83, 59]<br/>class = 0>, fillcolor="#f7dbc6"] ;
706 -> 712 ;
713 [label=<gini = 0.0<br/>samples = 24<br/>value = [24, 0]<br/>class = 0>, fillcolor="#e58139"] ;
712 -> 713 ;
714 [label=<duration &le; 0.778<br/>gini = 0.5<br/>samples = 118<br/>value = [59, 59]<br/>class = 0>, fillcolor="#ffffff"] ;
712 -> 714 ;
715 [label=<gini = 0.346<br/>samples = 36<br/>value = [28, 8]<br/>class = 0>, fillcolor="#eca572"] ;
714 -> 715 ;
716 [label=<gini = 0.47<br/>samples = 82<br/>value = [31, 51]<br/>class = 1>, fillcolor="#b1d9f5"] ;
714 -> 716 ;
717 [label=<duration &le; 2.956<br/>gini = 0.389<br/>samples = 1256<br/>value = [332, 924]<br/>class = 1>, fillcolor="#80c0ee"] ;
705 -> 717 ;
718 [label=<within_10 &le; 6.5<br/>gini = 0.386<br/>samples = 1250<br/>value = [326, 924]<br/>class = 1>, fillcolor="#7fc0ee"] ;
717 -> 718 ;
719 [label=<within_5 &le; 3.5<br/>gini = 0.372<br/>samples = 1145<br/>value = [283, 862]<br/>class = 1>, fillcolor="#7abdee"] ;
718 -> 719 ;
720 [label=<gini = 0.365<br/>samples = 1125<br/>value = [270, 855]<br/>class = 1>, fillcolor="#78bced"] ;
719 -> 720 ;
721 [label=<gini = 0.455<br/>samples = 20<br/>value = [13, 7]<br/>class = 0>, fillcolor="#f3c5a4"] ;
719 -> 721 ;
722 [label=<angle_to_goal &le; 0.24<br/>gini = 0.484<br/>samples = 105<br/>value = [43, 62]<br/>class = 1>, fillcolor="#c2e1f7"] ;
718 -> 722 ;
723 [label=<gini = 0.0<br/>samples = 11<br/>value = [11, 0]<br/>class = 0>, fillcolor="#e58139"] ;
722 -> 723 ;
724 [label=<gini = 0.449<br/>samples = 94<br/>value = [32, 62]<br/>class = 1>, fillcolor="#9fd0f2"] ;
722 -> 724 ;
725 [label=<gini = 0.0<br/>samples = 6<br/>value = [6, 0]<br/>class = 0>, fillcolor="#e58139"] ;
717 -> 725 ;
726 [label=<duration &le; 0.95<br/>gini = 0.478<br/>samples = 844<br/>value = [334, 510]<br/>class = 1>, fillcolor="#bbddf6"] ;
614 -> 726 ;
727 [label=<distant_to_goal &le; 10.302<br/>gini = 0.422<br/>samples = 519<br/>value = [157, 362]<br/>class = 1>, fillcolor="#8fc8f0"] ;
726 -> 727 ;
728 [label=<within_10 &le; 10.5<br/>gini = 0.224<br/>samples = 39<br/>value = [34, 5]<br/>class = 0>, fillcolor="#e99456"] ;
727 -> 728 ;
729 [label=<gini = 0.0<br/>samples = 31<br/>value = [31, 0]<br/>class = 0>, fillcolor="#e58139"] ;
728 -> 729 ;
730 [label=<distant_to_goal &le; 9.243<br/>gini = 0.469<br/>samples = 8<br/>value = [3, 5]<br/>class = 1>, fillcolor="#b0d8f5"] ;
728 -> 730 ;
731 [label=<gini = 0.0<br/>samples = 5<br/>value = [0, 5]<br/>class = 1>, fillcolor="#399de5"] ;
730 -> 731 ;
732 [label=<gini = 0.0<br/>samples = 3<br/>value = [3, 0]<br/>class = 0>, fillcolor="#e58139"] ;
730 -> 732 ;
733 [label=<distant_to_goal &le; 13.931<br/>gini = 0.381<br/>samples = 480<br/>value = [123, 357]<br/>class = 1>, fillcolor="#7dbfee"] ;
727 -> 733 ;
734 [label=<play_pattern &le; 0.5<br/>gini = 0.294<br/>samples = 358<br/>value = [64, 294]<br/>class = 1>, fillcolor="#64b2eb"] ;
733 -> 734 ;
735 [label=<angle_to_goal &le; 0.82<br/>gini = 0.305<br/>samples = 16<br/>value = [13, 3]<br/>class = 0>, fillcolor="#eb9e67"] ;
734 -> 735 ;
736 [label=<gini = 0.0<br/>samples = 13<br/>value = [13, 0]<br/>class = 0>, fillcolor="#e58139"] ;
735 -> 736 ;
737 [label=<gini = 0.0<br/>samples = 3<br/>value = [0, 3]<br/>class = 1>, fillcolor="#399de5"] ;
735 -> 737 ;
738 [label=<within_10 &le; 11.0<br/>gini = 0.254<br/>samples = 342<br/>value = [51, 291]<br/>class = 1>, fillcolor="#5caeea"] ;
734 -> 738 ;
739 [label=<distant_to_goal &le; 11.817<br/>gini = 0.243<br/>samples = 339<br/>value = [48, 291]<br/>class = 1>, fillcolor="#5aade9"] ;
738 -> 739 ;
740 [label=<play_pattern &le; 2.5<br/>gini = 0.362<br/>samples = 97<br/>value = [23, 74]<br/>class = 1>, fillcolor="#77bbed"] ;
739 -> 740 ;
741 [label=<gini = 0.484<br/>samples = 17<br/>value = [10, 7]<br/>class = 0>, fillcolor="#f7d9c4"] ;
740 -> 741 ;
742 [label=<gini = 0.272<br/>samples = 80<br/>value = [13, 67]<br/>class = 1>, fillcolor="#5fb0ea"] ;
740 -> 742 ;
743 [label=<angle_to_goal &le; 0.159<br/>gini = 0.185<br/>samples = 242<br/>value = [25, 217]<br/>class = 1>, fillcolor="#50a8e8"] ;
739 -> 743 ;
744 [label=<gini = 0.434<br/>samples = 22<br/>value = [7, 15]<br/>class = 1>, fillcolor="#95cbf1"] ;
743 -> 744 ;
745 [label=<gini = 0.15<br/>samples = 220<br/>value = [18, 202]<br/>class = 1>, fillcolor="#4ba6e7"] ;
743 -> 745 ;
746 [label=<gini = 0.0<br/>samples = 3<br/>value = [3, 0]<br/>class = 0>, fillcolor="#e58139"] ;
738 -> 746 ;
747 [label=<duration &le; 0.669<br/>gini = 0.499<br/>samples = 122<br/>value = [59, 63]<br/>class = 1>, fillcolor="#f2f9fd"] ;
733 -> 747 ;
748 [label=<angle_to_goal &le; 0.124<br/>gini = 0.381<br/>samples = 39<br/>value = [29, 10]<br/>class = 0>, fillcolor="#eeac7d"] ;
747 -> 748 ;
749 [label=<play_pattern &le; 2.5<br/>gini = 0.278<br/>samples = 12<br/>value = [2, 10]<br/>class = 1>, fillcolor="#61b1ea"] ;
748 -> 749 ;
750 [label=<gini = 0.0<br/>samples = 10<br/>value = [0, 10]<br/>class = 1>, fillcolor="#399de5"] ;
749 -> 750 ;
751 [label=<gini = 0.0<br/>samples = 2<br/>value = [2, 0]<br/>class = 0>, fillcolor="#e58139"] ;
749 -> 751 ;
752 [label=<gini = 0.0<br/>samples = 27<br/>value = [27, 0]<br/>class = 0>, fillcolor="#e58139"] ;
748 -> 752 ;
753 [label=<duration &le; 0.689<br/>gini = 0.462<br/>samples = 83<br/>value = [30, 53]<br/>class = 1>, fillcolor="#a9d4f4"] ;
747 -> 753 ;
754 [label=<gini = 0.0<br/>samples = 18<br/>value = [0, 18]<br/>class = 1>, fillcolor="#399de5"] ;
753 -> 754 ;
755 [label=<duration &le; 0.747<br/>gini = 0.497<br/>samples = 65<br/>value = [30, 35]<br/>class = 1>, fillcolor="#e3f1fb"] ;
753 -> 755 ;
756 [label=<gini = 0.0<br/>samples = 7<br/>value = [7, 0]<br/>class = 0>, fillcolor="#e58139"] ;
755 -> 756 ;
757 [label=<distant_to_goal &le; 16.982<br/>gini = 0.479<br/>samples = 58<br/>value = [23, 35]<br/>class = 1>, fillcolor="#bbddf6"] ;
755 -> 757 ;
758 [label=<gini = 0.493<br/>samples = 34<br/>value = [19, 15]<br/>class = 0>, fillcolor="#fae4d5"] ;
757 -> 758 ;
759 [label=<gini = 0.278<br/>samples = 24<br/>value = [4, 20]<br/>class = 1>, fillcolor="#61b1ea"] ;
757 -> 759 ;
760 [label=<distant_to_goal &le; 15.602<br/>gini = 0.496<br/>samples = 325<br/>value = [177, 148]<br/>class = 0>, fillcolor="#fbeadf"] ;
726 -> 760 ;
761 [label=<angle_to_goal &le; 0.184<br/>gini = 0.459<br/>samples = 230<br/>value = [148, 82]<br/>class = 0>, fillcolor="#f3c7a7"] ;
760 -> 761 ;
762 [label=<distant_to_goal &le; 9.619<br/>gini = 0.486<br/>samples = 72<br/>value = [30, 42]<br/>class = 1>, fillcolor="#c6e3f8"] ;
761 -> 762 ;
763 [label=<gini = 0.0<br/>samples = 22<br/>value = [0, 22]<br/>class = 1>, fillcolor="#399de5"] ;
762 -> 763 ;
764 [label=<angle_to_goal &le; 0.14<br/>gini = 0.48<br/>samples = 50<br/>value = [30, 20]<br/>class = 0>, fillcolor="#f6d5bd"] ;
762 -> 764 ;
765 [label=<play_pattern &le; 7.0<br/>gini = 0.375<br/>samples = 32<br/>value = [24, 8]<br/>class = 0>, fillcolor="#eeab7b"] ;
764 -> 765 ;
766 [label=<gini = 0.0<br/>samples = 19<br/>value = [19, 0]<br/>class = 0>, fillcolor="#e58139"] ;
765 -> 766 ;
767 [label=<within_10 &le; 3.5<br/>gini = 0.473<br/>samples = 13<br/>value = [5, 8]<br/>class = 1>, fillcolor="#b5daf5"] ;
765 -> 767 ;
768 [label=<gini = 0.0<br/>samples = 4<br/>value = [4, 0]<br/>class = 0>, fillcolor="#e58139"] ;
767 -> 768 ;
769 [label=<gini = 0.198<br/>samples = 9<br/>value = [1, 8]<br/>class = 1>, fillcolor="#52a9e8"] ;
767 -> 769 ;
770 [label=<angle_to_goal &le; 0.148<br/>gini = 0.444<br/>samples = 18<br/>value = [6, 12]<br/>class = 1>, fillcolor="#9ccef2"] ;
764 -> 770 ;
771 [label=<gini = 0.0<br/>samples = 10<br/>value = [0, 10]<br/>class = 1>, fillcolor="#399de5"] ;
770 -> 771 ;
772 [label=<duration &le; 1.831<br/>gini = 0.375<br/>samples = 8<br/>value = [6, 2]<br/>class = 0>, fillcolor="#eeab7b"] ;
770 -> 772 ;
773 [label=<gini = 0.0<br/>samples = 6<br/>value = [6, 0]<br/>class = 0>, fillcolor="#e58139"] ;
772 -> 773 ;
774 [label=<gini = 0.0<br/>samples = 2<br/>value = [0, 2]<br/>class = 1>, fillcolor="#399de5"] ;
772 -> 774 ;
775 [label=<distant_to_goal &le; 11.948<br/>gini = 0.378<br/>samples = 158<br/>value = [118, 40]<br/>class = 0>, fillcolor="#eeac7c"] ;
761 -> 775 ;
776 [label=<gini = 0.0<br/>samples = 65<br/>value = [65, 0]<br/>class = 0>, fillcolor="#e58139"] ;
775 -> 776 ;
777 [label=<within_5 &le; 2.5<br/>gini = 0.49<br/>samples = 93<br/>value = [53, 40]<br/>class = 0>, fillcolor="#f9e0ce"] ;
775 -> 777 ;
778 [label=<angle_to_goal &le; 0.768<br/>gini = 0.484<br/>samples = 68<br/>value = [28, 40]<br/>class = 1>, fillcolor="#c4e2f7"] ;
777 -> 778 ;
779 [label=<angle_to_goal &le; 0.394<br/>gini = 0.444<br/>samples = 60<br/>value = [20, 40]<br/>class = 1>, fillcolor="#9ccef2"] ;
778 -> 779 ;
780 [label=<gini = 0.0<br/>samples = 7<br/>value = [7, 0]<br/>class = 0>, fillcolor="#e58139"] ;
779 -> 780 ;
781 [label=<gini = 0.37<br/>samples = 53<br/>value = [13, 40]<br/>class = 1>, fillcolor="#79bded"] ;
779 -> 781 ;
782 [label=<gini = 0.0<br/>samples = 8<br/>value = [8, 0]<br/>class = 0>, fillcolor="#e58139"] ;
778 -> 782 ;
783 [label=<gini = 0.0<br/>samples = 25<br/>value = [25, 0]<br/>class = 0>, fillcolor="#e58139"] ;
777 -> 783 ;
784 [label=<within_10 &le; 6.5<br/>gini = 0.424<br/>samples = 95<br/>value = [29, 66]<br/>class = 1>, fillcolor="#90c8f0"] ;
760 -> 784 ;
785 [label=<duration &le; 0.997<br/>gini = 0.375<br/>samples = 88<br/>value = [22, 66]<br/>class = 1>, fillcolor="#7bbeee"] ;
784 -> 785 ;
786 [label=<gini = 0.0<br/>samples = 5<br/>value = [5, 0]<br/>class = 0>, fillcolor="#e58139"] ;
785 -> 786 ;
